tree
version=v4
num_class=1
num_tree_per_iteration=1
label_index=0
max_feature_idx=16
objective=binary sigmoid:1
feature_names=STT Account_Balance Duration_of_Credit_(month) Payment_Status_of_Previous_Credit Purpose Credit_Amount Value_Savings/Stocks Length_of_current_employment Instalment_per_cent Sex_&_Marital_Status Most_valuable_available_asset Age_(years) Concurrent_Credits Type_of_apartment No_of_Credits_at_this_Bank Occupation Telephone
feature_infos=[1:999] [1:3] [4:72] [1:3] [0:3] [250:18424] [1:4] [1:4] [1:4] [1:3] [1:4] [19:75] [1:2] [1:3] [1:2] [1:3] [1:2]
tree_sizes=3548 3485 3482 3589 3482 3602 3597 3697 3596 3602 3596 3588 3697 3697 3807 3664 3694 3779 3597 3672 3580 3478 3600 3366 3693 3803 3666 3708 3801 3793 3601 3598 3691 3679 3784 3791 3790 3798 3906 3795 3687 3693 3689 3689 3804 3705 3805 3693 3810 3804 3793 3601 3588 3812 3782 3483 3696 3810 3701 3475 3923 3924 3816 3921 3813 3687 3800 3692 3699 3692 3486 3580 3481 3278 3593 3699 3588 3900 3689 3910 3811 3778 3697 4031 3573 3799 3700 3693 3806 3796 3705 3810 3699 3796 3908 3912 3801 3910 3593 3699 3698 3597 3487 3590 3593 3709 3281 3696 3492 3596 3481 3266 3604 3492 3590 3704 3596 3596 3606 3606 3491 3705 3811 3707 3612 3818 3704 3827 3612 3822 3822 3501 3609 3604 3396 3813 3709 3819 3811 3716 3711 3828 3703 3706 3609 3695 3594 3806 3603 3605 3504 3499 3594 3498 3707 3710 3601 3809 3914 3703 3811 3720 3834 3598 3819 3617 3817 3625 3724 3817 4023 3826 3819 3819 3913 3611 3608 3610 3518 3510 3820 3516 3693 3613 3728 3617 3927 3820 3830 4029 3705 3711 3818 3717 3806 3938 3615 3924 3832 3814

Tree=0
num_leaves=33
num_cat=0
split_feature=1 2 3 9 1 4 3 5 7 5 8 8 5 15 8 5 9 2 3 1 5 5 5 5 9 16 5 6 5 5 5 2
split_gain=175.742 50.1255 32.4782 28.1433 10.8688 10.3187 10.0293 8.5073 8.34749 10.5741 8.04129 7.33539 4.98618 4.7409 4.48567 4.45054 2.97847 2.25984 2.11765 1.64991 1.60001 1.45662 1.43638 1.06391 1.17994 0.833336 0.799263 0.761907 0.148718 0.146321 0.124529 7.10543e-15
threshold=2.5000000000000004 24.500000000000004 2.5000000000000004 1.5000000000000002 1.5000000000000002 1.5000000000000002 2.5000000000000004 1216.5000000000002 2.5000000000000004 4446.5000000000009 3.5000000000000004 2.5000000000000004 1741.5000000000002 2.5000000000000004 2.5000000000000004 2088.0000000000005 1.5000000000000002 30.500000000000004 2.5000000000000004 1.5000000000000002 2715.0000000000005 1365.0000000000002 2780.5000000000005 4803.0000000000009 1.5000000000000002 1.5000000000000002 2341.5000000000005 2.5000000000000004 9619.5000000000018 6199.5000000000009 3822.0000000000005 39.500000000000007
decision_type=2 2 2 2 2 2 2 2 2 2 2 2 2 2 2 2 2 2 2 2 2 2 2 2 2 2 2 2 2 2 2 2
left_child=1 2 3 5 10 21 13 -4 9 14 -5 -6 -12 17 26 19 -9 -3 -16 -7 -18 -1 25 24 -19 27 -2 -10 31 -8 -24 -25
right_child=8 6 7 4 11 15 29 16 22 -11 12 -13 -14 -15 18 -17 20 23 -20 -21 -22 -23 30 28 -26 -27 -28 -29 -30 -31 -32 -33
leaf_value=-0.022521441300072702 0.011208646392476325 -0.016006483953757998 -0.0043147539335885009 0.00066842738571786268 -0.0044435788325599933 -0.015574050103696932 -0.0072103863218340915 0.0036260128390142869 0.0075371367717887924 -0.00357401076450242 -0.018574059938495563 0.0099395470499058173 -0.0053921985431682551 -0.010240699286277152 0.0023083614605929298 -0.001755822985836584 0.0084260285746920929 -0.02203560974787859 0.0093672081307073496 -0.0087592129481049875 0.016426054800821769 -0.016907387808051882 0.014426048244289353 -0.023574076329826606 -0.015574050103696935 0.013926046605156249 0.016426054800821769 0.012616518502664782 -0.021574069773294194 -0.0095740304340996771 0.016426054800821776 -0.023574076329826613
leaf_weight=9.4999688565731066 5.7499811500310916 9.2499696761369687 6.7499778717756298 8.2499729543924332 5.7499811500310889 7.4999754130840319 5.4999819695949537 6.2499795109033593 6.7499778717756289 8.4999721348285657 5.9999803304672241 9.2499696761369687 5.4999819695949554 5.2499827891588202 8.4999721348285675 5.4999819695949546 4.9999836087226868 6.4999786913394946 8.4999721348285675 6.7499778717756271 4.9999836087226868 8.9999704957008344 4.9999836087226859 6.4999786913394946 4.9999836087226868 7.9999737739562979 5.9999803304672241 5.2499827891588211 4.9999836087226859 4.9999836087226868 8.2499729543924314 7.9999737739562988
leaf_count=38 23 37 27 33 23 30 22 25 27 34 24 37 22 21 34 22 20 26 34 27 20 36 20 26 20 32 24 21 20 20 33 32
internal_value=-0.00361011 -0.00962666 -0.00524068 -0.00850553 -0.00199127 -0.0144237 -0.0171455 0.00512167 0.00947568 0.00622468 -0.00686516 0.00442602 -0.0122697 -0.0191785 0.00912168 -0.00939681 0.00904142 -0.0203443 0.00583778 -0.012346 0.012426 -0.0197903 0.0131178 -0.0216386 -0.0192262 0.011426 0.0138729 0.00975937 -0.0230613 -0.00833593 0.0156713 -0.0235741
internal_weight=0 152 95.9997 72.9998 34.7499 38.2499 55.9998 22.9999 70.4998 37.2499 19.7499 15 11.5 45.4999 28.7499 19.7499 16.2499 40.2499 16.9999 14.25 9.99997 18.4999 33.2499 30.9999 11.5 19.9999 11.75 12 19.4999 10.5 13.25 14.5
internal_count=890 608 384 292 139 153 224 92 282 149 79 60 46 182 115 79 65 161 68 57 40 74 133 124 46 80 47 48 78 42 53 58
is_linear=0
shrinkage=1


Tree=1
num_leaves=32
num_cat=0
split_feature=0 1 9 3 2 4 0 2 5 0 11 0 1 0 7 5 5 5 5 1 2 3 9 4 7 5 8 14 2 9 5
split_gain=415.242 72.2988 55.4662 21.7733 17.7416 7.50677 7.33976 7.01477 10.8845 5.08298 7.53661 4.38189 3.2314 2.58181 2.56902 0.566625 0.265438 0.4074 0.129729 0.00229382 0.00104803 0.000560822 0.000529309 0.000338827 0.000220333 0.000176639 0.000144355 7.26112e-05 5.77305e-05 5.46484e-05 4.43608e-05
threshold=740.50000000000011 2.5000000000000004 1.5000000000000002 2.5000000000000004 24.500000000000004 1.5000000000000002 288.50000000000006 25.500000000000004 1839.0000000000002 539.50000000000011 35.500000000000007 752.50000000000011 1.5000000000000002 514.00000000000011 2.5000000000000004 1443.0000000000002 1921.5000000000002 1473.5000000000002 967.50000000000011 2.5000000000000004 30.500000000000004 2.5000000000000004 1.5000000000000002 1.5000000000000002 2.5000000000000004 3594.5000000000005 3.5000000000000004 1.5000000000000002 18.500000000000004 1.5000000000000002 2828.0000000000005
decision_type=2 2 2 2 2 2 2 2 2 2 2 2 2 2 2 2 2 2 2 2 2 2 2 2 2 2 2 2 2 2 2
left_child=1 2 3 6 9 -6 -1 8 12 15 -11 -2 -8 16 -15 -4 17 18 -3 20 22 -17 23 -13 25 -18 -24 29 -28 -22 -26
right_child=11 13 4 -5 5 -7 7 -9 -10 10 -12 19 -14 14 -16 21 24 -19 -20 -21 27 -23 26 -25 30 -27 28 -29 -30 -31 -32
leaf_value=0.0027683581935334669 -0.010411269477179129 0.017912322003673646 0.016007514298691919 0.010964120723720959 0.0096969082358480847 -0.0059892865922178086 -0.016733667630394817 -0.016652324451970422 0.0035534798956745957 0.016641784852020333 0.0017833040505992599 -0.019820048566977187 -0.0065563825885627007 0.0090460080573402726 0.018332314292763406 0.019996949769491353 0.019885807937705002 0.015905862950078425 0.019902361045314593 -0.020029607276943948 -0.019787318268158868 0.019868687341211628 -0.019968917560950279 -0.019909453855218608 0.019881137029225053 0.01996031747285364 -0.019888569250879787 -0.019844987637127113 -0.019935466422438826 -0.019821744589496981 0.01984433711898816
leaf_weight=5.7495771497488013 5.2496875375509253 4.9998759925365475 4.9998646676540401 7.7499533146619788 5.7497046291828138 6.4995158761739731 6.4993882477283531 9.4990727305412275 7.2497078329324713 8.9998186379671079 5.4998622983694068 9.7491323202848452 5.9997772574424744 5.4998922944068891 6.4997086524963379 7.4999448806047422 8.7496540248393995 4.9998714029788962 9.4997415244579297 9.7498895078897458 9.7488350719213521 6.2497025728225708 7.7499038279056558 7.4997520148754111 4.9998126178979883 4.9998848736286172 5.2496934086084366 5.4996010959148398 5.2498824298381805 8.7492247968912125 9.4994130432605726
leaf_count=23 21 20 20 31 23 26 26 38 29 36 22 39 24 22 26 30 35 20 38 39 39 25 31 30 20 20 21 22 21 35 38
internal_value=0 0.00972832 0.00397713 -0.00420205 0.0116618 0.00137371 -0.00756049 -0.00959094 -0.00619447 0.015452 0.0110058 -0.0192196 -0.0118484 0.0182227 0.014076 0.0188903 0.0192648 0.0183674 0.0192161 -0.0198874 -0.0198641 0.0199386 -0.0198986 -0.0198589 0.0198842 0.0199129 -0.0199362 -0.0198131 -0.019912 -0.0198036 0.019857
internal_weight=0 147.994 88.2459 42.7475 45.4984 12.2492 34.9975 29.2479 19.7489 33.2492 14.4997 74.4956 12.4992 59.7479 11.9996 18.7495 47.7483 19.4995 14.4996 69.2459 59.496 13.7496 35.4984 17.2489 28.2488 13.7495 18.2495 23.9977 10.4996 18.4981 14.4992
internal_count=890 592 353 171 182 49 140 117 79 133 58 298 50 239 48 75 191 78 58 277 238 55 142 69 113 55 73 96 42 74 58
is_linear=0
shrinkage=0.01


Tree=2
num_leaves=32
num_cat=0
split_feature=0 1 9 3 2 4 4 8 11 0 11 0 5 0 7 5 5 5 5 1 2 3 9 4 7 5 8 14 2 9 5
split_gain=407.05 70.88 54.3667 21.3417 17.3917 7.35731 7.24924 5.34146 4.991 4.98377 7.38785 4.29764 2.97486 2.53202 2.51943 0.555947 0.260489 0.399555 0.127262 0.00216028 0.000987266 0.000528171 0.000498563 0.000319184 0.000207563 0.000166386 0.000135924 6.84126e-05 5.43588e-05 5.14903e-05 4.17897e-05
threshold=740.50000000000011 2.5000000000000004 1.5000000000000002 2.5000000000000004 24.500000000000004 1.5000000000000002 2.5000000000000004 2.5000000000000004 30.500000000000004 539.50000000000011 35.500000000000007 752.50000000000011 1913.5000000000002 514.00000000000011 2.5000000000000004 1443.0000000000002 1921.5000000000002 1473.5000000000002 967.50000000000011 2.5000000000000004 30.500000000000004 2.5000000000000004 1.5000000000000002 1.5000000000000002 2.5000000000000004 3594.5000000000005 3.5000000000000004 1.5000000000000002 18.500000000000004 1.5000000000000002 2828.0000000000005
decision_type=2 2 2 2 2 2 2 2 2 2 2 2 2 2 2 2 2 2 2 2 2 2 2 2 2 2 2 2 2 2 2
left_child=1 2 3 6 9 -6 7 -1 -8 15 -11 -2 -9 16 -15 -4 17 18 -3 20 22 -17 23 -13 25 -18 -24 29 -28 -22 -26
right_child=11 13 4 -5 5 -7 8 12 -10 10 -12 19 -14 14 -16 21 24 -19 -20 -21 27 -23 26 -25 30 -27 28 -29 -30 -31 -32
leaf_value=-0.0037748889295833965 -0.010307790414371618 0.017736032834656298 0.015848367120426018 0.010854829170461929 0.0095995520209533752 -0.0059297418195667223 0.0047740371248088127 -0.0097513851484833779 -0.0083361330681484287 0.016476859308759046 0.0017654782550015184 -0.019627333309142278 -0.01844542710592615 0.0089559160083710274 0.018152695874183115 0.019799029235057147 0.019691164590910241 0.015748993738219443 0.019707230620803446 -0.019830720446999447 -0.019595558711781525 0.019674545782483704 -0.019771826362716263 -0.019714118247504953 0.019686629860287921 0.019763485349564149 -0.019693852792498991 -0.019651544122376931 -0.019739364147083608 -0.019628980379976967 0.019650908187142716
leaf_weight=7.4986186772584924 5.24936619400978 4.9990803599357632 4.9995727688074139 7.7497046589851371 5.7499351948499662 6.4991364926099777 6.4992998540401441 7.9985296279191971 5.2490586340427399 8.9990067183971387 5.4998408108949652 9.7464199960231799 7.7482976168394089 5.4996676295995695 6.4983879327774048 7.4991711974143964 8.7477890700101835 4.999179244041442 9.4978727847337705 9.7491984814405424 9.7458073496818578 6.2482650578022003 7.7488891184329995 7.4983280152082434 4.9987241774797448 4.9991867840290078 5.2485868036746979 5.4982060939073554 5.249020978808403 8.7468050271272659 9.4969995319843274
leaf_count=30 21 20 20 31 23 26 26 32 21 36 22 39 31 22 26 30 35 20 38 39 39 25 31 30 20 20 21 22 21 35 38
internal_value=0 0.00963224 0.00393769 -0.00416042 0.0115461 0.00135999 -0.00748569 -0.0107214 -0.00108347 0.015299 0.0108964 -0.0190313 -0.0140293 0.0180438 0.0139371 0.018704 0.0190759 0.0181868 0.0190275 -0.0196927 -0.0196701 0.0197425 -0.0197036 -0.0196651 0.0196896 0.0197175 -0.0197401 -0.0196206 -0.0197166 -0.0196114 0.0196632
internal_weight=0 147.975 88.2384 42.7435 45.4949 12.2491 34.9938 23.2454 11.7484 33.2459 14.4988 74.4806 15.7468 59.7369 11.9981 18.747 47.7388 19.4961 14.497 69.2313 59.4821 13.7474 35.4912 17.2447 28.2427 13.747 18.2465 23.9908 10.4976 18.4926 14.4957
internal_count=890 592 353 171 182 49 140 93 47 133 58 298 63 239 48 75 191 78 58 277 238 55 142 69 113 55 73 96 42 74 58
is_linear=0
shrinkage=0.01


Tree=3
num_leaves=33
num_cat=0
split_feature=0 1 9 3 2 4 0 2 8 0 11 0 0 7 4 11 4 11 0 1 2 9 3 4 7 8 8 14 16 2 9 7
split_gain=399.084 69.5072 53.2947 20.9195 17.0527 7.21109 7.17363 6.81785 6.85135 4.88887 7.24386 4.21767 2.4848 2.47198 2.42955 0.529775 0.236874 0.356627 0.134377 0.00203571 0.000930582 0.000469898 0.000446101 0.000300855 0.000138041 0.00014149 0.000128065 6.44955e-05 5.38045e-05 5.12122e-05 4.8544e-05 2.271e-05
threshold=740.50000000000011 2.5000000000000004 1.5000000000000002 2.5000000000000004 24.500000000000004 1.5000000000000002 288.50000000000006 25.500000000000004 2.5000000000000004 539.50000000000011 35.500000000000007 752.50000000000011 514.00000000000011 2.5000000000000004 1.5000000000000002 28.500000000000004 2.5000000000000004 30.500000000000004 347.50000000000006 2.5000000000000004 30.500000000000004 1.5000000000000002 2.5000000000000004 1.5000000000000002 2.5000000000000004 2.5000000000000004 3.5000000000000004 1.5000000000000002 1.5000000000000002 18.500000000000004 1.5000000000000002 3.5000000000000004
decision_type=2 2 2 2 2 2 2 2 2 2 2 2 2 2 2 2 2 2 2 2 2 2 2 2 2 2 2 2 2 2 2 2
left_child=1 2 3 6 9 -6 -1 8 -8 15 -11 -2 16 -14 -10 -4 24 -18 31 20 21 23 -17 -13 25 -3 -23 30 -26 -28 -22 -19
right_child=11 12 4 -5 5 -7 7 -9 14 10 -12 19 13 -15 -16 22 17 18 -20 -21 27 26 -24 -25 28 -27 29 -29 -30 -31 -32 -33
leaf_value=0.0027996190768274703 -0.01020588094973225 0.019510504887520121 0.015826756975276406 0.010747262977879445 0.0095036192976026834 -0.0058708896832286774 0.0025856002892281583 -0.016383136351090177 -0.015611979491792508 0.016315789879027435 0.0017478328117223865 -0.01944021872697187 0.0088670756398854175 0.017977791653402783 -0.0068256902003649865 0.019626616687937349 0.015908921916004494 0.019530451546720888 0.017524010882492121 -0.019637693588158891 -0.019409359758106839 -0.019580521130502217 0.019511539343638237 -0.019524492739337346 0.019512564052432183 0.019573199444795998 -0.019504821858648706 -0.019463731910872369 0.019470199985994932 -0.01954900475636167 -0.019441818988852472 0.019500995610200335
leaf_weight=5.7492372691631308 5.2487679570913306 8.4945308715105075 5.248028531670573 7.7489998787641516 5.7498972117900831 6.4986460208892822 6.2490580528974577 9.4945633560419065 4.9979535192251214 8.9969756752252561 5.4998109936714163 9.7418495565652865 5.4992237538099271 6.4960050880908966 8.4985031783580762 6.9973672628402692 5.4969818890094784 5.4967576861381513 4.9970116615295401 9.7465886175632459 9.7409313023090398 7.7463625967502603 6.4958127439022064 7.4954548031091681 5.9962246567010862 6.2469769120216361 5.2464688420295715 5.4957591146230689 5.9955481439828873 5.2471407651901245 8.7427173852920532 4.9967095702886581
leaf_count=23 21 34 21 31 23 26 25 38 20 36 22 39 22 26 34 28 22 22 20 39 39 31 26 30 24 25 21 22 24 21 35 20
internal_value=0 0.00953816 0.00389892 -0.00411933 0.0114327 0.00134645 -0.00741179 -0.00941958 -0.00607118 0.0151496 0.010789 -0.0188482 0.0178696 0.013801 -0.0100794 0.0185227 0.0188923 0.0180972 0.0188737 -0.0195037 -0.0194818 -0.0195143 0.0195712 -0.0194769 0.0195166 0.0195371 -0.0195497 -0.0194337 0.0194914 -0.0195269 -0.0194247 0.0195164
internal_weight=0 147.941 88.2249 42.7383 45.4865 12.2485 34.9893 29.2401 19.7455 33.238 14.4968 74.452 59.716 11.9952 13.4965 18.7412 47.7207 20.9875 15.4905 69.2033 59.4567 35.4773 13.4932 17.2373 26.7333 14.7415 18.24 23.9794 11.9918 10.4936 18.4836 10.4935
internal_count=890 592 353 171 182 49 140 117 79 133 58 298 239 48 54 75 191 84 62 277 238 142 54 69 107 59 73 96 48 42 74 42
is_linear=0
shrinkage=0.01


Tree=4
num_leaves=32
num_cat=0
split_feature=0 1 9 3 2 4 4 8 0 0 0 5 5 0 7 5 5 5 5 1 2 3 9 4 7 8 8 14 2 9 5
split_gain=391.336 68.1772 52.2493 20.5068 16.7241 7.07354 7.06805 5.15334 4.79797 4.53548 4.14174 3.66885 2.89164 2.43998 2.42653 0.545226 0.255265 0.392019 0.124442 0.00191943 0.000877642 0.000534388 0.000443122 0.000283734 0.00017844 0.000160704 0.000120731 6.08383e-05 4.82778e-05 4.57881e-05 3.82596e-05
threshold=740.50000000000011 2.5000000000000004 1.5000000000000002 2.5000000000000004 24.500000000000004 2.5000000000000004 1.5000000000000002 2.5000000000000004 539.50000000000011 537.50000000000011 752.50000000000011 1190.5000000000002 1913.5000000000002 514.00000000000011 2.5000000000000004 1443.0000000000002 1921.5000000000002 1473.5000000000002 967.50000000000011 2.5000000000000004 30.500000000000004 2.5000000000000004 1.5000000000000002 1.5000000000000002 2.5000000000000004 2.5000000000000004 3.5000000000000004 1.5000000000000002 18.500000000000004 1.5000000000000002 2828.0000000000005
decision_type=2 2 2 2 2 2 2 2 2 2 2 2 2 2 2 2 2 2 2 2 2 2 2 2 2 2 2 2 2 2 2
left_child=1 2 3 5 8 7 -6 -1 15 -7 -2 -10 -9 16 -15 -4 17 18 -3 20 22 -17 23 -12 25 -18 -24 29 -28 -22 -26
right_child=10 13 4 -5 6 9 -8 12 11 -11 19 -13 -14 14 -16 21 24 -19 -20 -21 27 -23 26 -25 30 -27 28 -29 -30 -31 -32
leaf_value=-0.0037131330617406807 -0.010105499344082405 0.017388929558500712 0.015517665832829786 0.010641373457058283 0.0094090742448955395 0.0056084216461053105 -0.0058127179710132535 -0.0095686349599319008 0.017618944276245063 -0.0068444589541081912 -0.019258474099059966 0.0070335992825595415 -0.018142487309966364 0.008779458385136045 0.017807414128622027 0.01943217398523946 0.019318506412411326 0.015417796347108848 0.019338995591290084 -0.019450281342907487 -0.019228493247109069 0.019306903793924138 -0.019394757756195841 -0.019340339880855938 0.019319600193903649 0.019387853328490048 -0.019321237869147224 -0.019281318159204086 -0.019364148497355224 -0.019260028173949572 0.019285403258947093
leaf_weight=7.4976339489221582 5.2479009777307501 4.9950286149978664 4.9968209564685848 7.7478522807359687 5.7495986074209195 5.4991042166948301 6.4980479925870895 7.9957112520933151 4.9974739104509345 6.247427225112915 9.7354773879051226 9.4960613101720792 7.7428206950426102 5.4985668659210187 6.4925922155380249 7.4935314655303937 7.9899225682020187 4.9955434799194327 9.4888685643672925 9.7421173900365812 9.7342630028724706 6.2419140934944153 7.7423708140850076 7.4911764711141577 4.99378526210785 5.7442164868116379 5.2433705776929855 5.4922917038202277 5.2442730069160461 8.7370127290487289 9.486951991915701
leaf_count=30 21 20 20 31 23 22 26 32 20 25 39 38 31 22 26 30 32 20 38 39 39 25 31 30 20 23 21 22 21 35 38
internal_value=0 0.00944608 0.00386085 -0.00407888 0.0113217 -0.00733908 0.00133308 -0.0105362 0.0150037 -0.00101468 -0.0186703 0.0106835 -0.0137867 0.0177 0.0136676 0.0183462 0.0187138 0.0178333 0.0186665 -0.0193202 -0.0192988 0.0193752 -0.0193304 -0.0192941 0.0193217 0.0193475 -0.0193648 -0.0192521 -0.0193427 -0.0192434 0.0192972
internal_weight=0 147.889 88.204 42.7305 45.4734 34.9827 12.2476 23.2362 33.2258 11.7465 74.4103 14.4935 15.7385 59.6855 11.9912 18.7323 47.6943 19.4794 14.4839 69.1624 59.4202 13.7354 35.4567 17.2267 28.2149 13.7341 18.23 23.9636 10.4876 18.4713 14.4807
internal_count=890 592 353 171 182 140 49 93 133 47 298 58 63 239 48 75 191 78 58 277 238 55 142 69 113 55 73 96 42 74 58
is_linear=0
shrinkage=0.01


Tree=5
num_leaves=33
num_cat=0
split_feature=0 1 9 3 0 16 10 11 11 4 0 1 7 0 1 9 4 5 11 1 3 5 5 9 4 5 7 16 11 5 4 11
split_gain=372.232 77.8154 70.4462 18.3688 10.0342 9.56569 13.8244 13.1317 5.99742 3.68258 3.29447 2.93848 2.74699 2.56317 2.28588 0.36342 0.761936 0.305063 0.128327 0.00204748 0.000659968 0.000454307 0.000282528 0.000330348 0.000238027 0.000172698 0.000153347 0.000108635 4.87094e-05 4.70393e-05 3.5478e-05 1.08519e-05
threshold=740.50000000000011 2.5000000000000004 1.5000000000000002 2.5000000000000004 406.50000000000006 1.5000000000000002 2.5000000000000004 31.500000000000004 41.500000000000007 1.5000000000000002 514.00000000000011 1.5000000000000002 2.5000000000000004 752.50000000000011 1.5000000000000002 1.5000000000000002 2.5000000000000004 2386.5000000000005 39.500000000000007 2.5000000000000004 2.5000000000000004 1921.5000000000002 3775.5000000000005 1.5000000000000002 1.5000000000000002 1412.5000000000002 2.5000000000000004 1.5000000000000002 30.500000000000004 3059.5000000000005 1.0000000180025095e-35 30.500000000000004
decision_type=2 2 2 2 2 2 2 2 2 2 2 2 2 2 2 2 2 2 2 2 2 2 2 2 2 2 2 2 2 2 2 2
left_child=1 2 3 4 9 6 11 -8 14 -1 15 -4 -12 -2 17 16 -3 -6 -7 20 22 25 23 24 -15 -17 -23 31 -25 -28 -29 -24
right_child=13 10 5 -5 8 18 7 -9 -10 -11 12 -13 -14 19 -16 21 -18 -19 -20 -21 -22 26 27 28 -26 -27 29 30 -30 -31 -32 -33
leaf_value=-0.006201524492233274 -0.011890413693571897 0.019169934701955615 0.010077770868492332 0.0085371162462231764 -0.019447004271902373 0.019507137450604096 0.012036801400490429 -0.0092338847522120092 -0.0031545733717147501 0.0049677646464005428 0.0079417717875847303 0.018281340171732382 0.017516087720860413 -0.019061058429839278 -0.010809289369452168 0.019186013719385636 0.014771971891493482 -0.016245251888165165 0.017497891591250921 -0.019279926497992792 -0.019197645931774178 0.019173885416915344 -0.019046165560945207 -0.019191459382388983 -0.01913898384250165 0.019264249018249937 0.019143855801828476 -0.019117504645916213 -0.019149711179296262 0.01910447343186324 -0.019084329738091425 -0.019066522976497607
leaf_weight=6.7455539852380735 5.2465505748987189 9.48205713927746 8.4910895973444021 7.246563345193862 5.4952705800533348 8.7415607869625074 5.2454318553209287 6.4977467656135559 5.4954137206077567 5.2488169372081757 5.9975752234458906 8.9884276986122131 5.9891772717237473 8.2299648225307482 7.9947451800107947 6.4882517755031568 6.7389016747474662 6.4909339994192123 4.9950733929872504 9.2369917631149274 9.2337578833103162 8.9831300973892212 5.2368247956037521 5.2405792474746686 7.4847173094749442 4.9926400035619736 4.9899806082248688 5.9871289730072021 5.9880161583423615 7.7329673767089844 6.9838017225265503 5.2373681217432022
leaf_count=27 21 38 34 29 22 35 21 26 22 21 24 36 24 33 32 26 27 26 20 37 37 36 21 21 30 20 20 24 24 31 28 21
internal_value=0 0.00879458 0.0027487 -0.00603703 -0.00885556 0.011894 0.0086587 0.000267285 -0.0124063 -0.00131377 0.0174286 0.0142963 0.0127256 -0.018628 -0.0149508 0.0185696 0.0173428 -0.0177131 0.0187765 -0.0191414 -0.0191199 0.0191692 -0.0191057 -0.0191278 -0.0190982 0.01922 0.0191423 -0.0190803 -0.0191692 0.0191199 -0.0190996 -0.0190563
internal_weight=0 149.071 87.6766 44.7173 37.4707 42.9593 29.2227 11.7432 25.4764 11.9944 61.3947 17.4795 11.9868 74.1057 19.9809 49.4079 16.221 11.9862 13.7366 68.8592 59.6222 33.187 50.3884 26.9433 15.7147 11.4809 21.7061 23.4451 11.2286 12.7229 12.9709 10.4742
internal_count=894 597 351 179 150 172 117 47 102 48 246 70 48 297 80 198 65 48 55 276 239 133 202 108 63 46 87 94 45 51 52 42
is_linear=0
shrinkage=0.01


Tree=6
num_leaves=33
num_cat=0
split_feature=0 9 0 2 6 0 16 2 11 8 11 11 4 11 0 2 6 0 11 0 2 3 3 9 4 6 0 8 8 16 8 16
split_gain=365.117 68.9281 34.6191 23.2901 15.2593 14.7769 9.62292 11.2183 9.26934 8.28657 7.15591 6.9538 4.91149 4.53105 2.52115 1.3362 2.52396 1.26548 0.276709 0.391332 0.0012689 0.000602191 0.000519686 0.000320275 0.000315582 0.000267085 0.000204232 0.000145275 9.18048e-05 5.12964e-05 4.52386e-05 2.34453e-05
threshold=740.50000000000011 1.5000000000000002 375.50000000000006 25.500000000000004 2.5000000000000004 514.00000000000011 1.5000000000000002 26.500000000000004 36.500000000000007 2.5000000000000004 28.500000000000004 32.500000000000007 1.5000000000000002 27.500000000000004 752.50000000000011 27.500000000000004 1.5000000000000002 585.50000000000011 28.500000000000004 329.50000000000006 30.500000000000004 2.5000000000000004 2.5000000000000004 1.5000000000000002 1.5000000000000002 2.5000000000000004 375.50000000000006 2.5000000000000004 3.5000000000000004 1.5000000000000002 3.5000000000000004 1.5000000000000002
decision_type=2 2 2 2 2 2 2 2 2 2 2 2 2 2 2 2 2 2 2 2 2 2 2 2 2 2 2 2 2 2 2 2
left_child=1 2 9 4 8 15 7 10 12 -1 -7 13 -4 -11 -2 18 -17 -5 19 -3 21 23 30 24 -16 26 27 -20 -25 -27 31 -22
right_child=14 5 3 17 -6 6 -8 -9 -10 11 -12 -13 -14 -15 20 16 -18 -19 25 -21 22 -23 -24 28 -26 29 -28 -29 -30 -31 -32 -33
leaf_value=0.01734697726521538 -0.011775432570994684 0.019067777597302753 -0.014539261129138668 -0.01179383050586187 0.01590600523178469 0.019249624375782582 0.017283260918299768 -0.0072012013776920911 0.0065909104697379154 0.0070680252903644837 0.0041623577275072769 0.014307358952223067 -0.0027855729347056241 -0.0060928459139424455 -0.018916926345294023 0.009461130135137422 0.019185895522600301 -0.018117747207981122 0.018998893282591151 0.015154245325724068 -0.018872902953012995 -0.019082402185258605 -0.019001861109619964 -0.019042425125108699 -0.019001797993326339 0.019024595609103249 0.019107738205111979 0.019065744915961726 -0.018994682441159889 0.018986037540717902 -0.018915648256940379 -0.018897751150070887
leaf_weight=9.7331833243370074 5.2448112070560446 5.2371824830770475 5.9916388690471711 5.2412695437669736 5.2440859526395789 4.9920332878828075 9.2399194389581698 5.4968370497226706 6.7421658486127845 5.4929991066455859 8.4907270669937116 5.9877852946519843 8.7429260611534101 4.9945042133331299 9.7179165929555911 4.9903016090393049 5.7370655983686447 7.9853846281766891 5.4846101254224795 4.9892169386148453 8.7187844067812019 7.7319487184286109 5.4848175793886176 7.4809196740388879 7.9777781516313544 6.2333772927522642 6.2358834296464911 7.9805390536785126 8.7252163887023926 7.7277770042419434 6.2293874770402899 6.7269834429025641
leaf_count=39 21 21 24 21 21 20 37 22 27 22 34 24 35 20 39 20 23 32 22 20 35 31 22 30 32 25 25 32 35 31 25 27
internal_value=0 0.00871133 0.00110034 -0.00475901 0.000613058 0.0147898 0.00891398 0.00483953 -0.0031211 0.0100313 0.00974846 0.00570936 -0.00756507 0.000800373 -0.0184586 0.0178258 0.014662 -0.0156118 0.0185991 0.0171585 -0.0189681 -0.0190028 -0.0189149 -0.0189846 -0.0189552 0.0190367 0.0190604 0.0190385 -0.0190167 0.0190033 -0.0188929 -0.0188837
internal_weight=0 148.991 66.1559 39.9475 26.7208 82.8355 28.2195 18.9796 21.4767 26.2085 13.4828 16.4753 14.7346 10.4875 74.0386 54.616 10.7274 13.2267 43.8886 10.2264 68.7938 41.6338 27.16 33.9018 17.6957 33.6622 19.701 13.4651 16.2061 13.9612 21.6752 15.4458
internal_count=894 597 265 160 107 332 113 76 86 105 54 66 59 42 297 219 43 53 176 41 276 167 109 136 71 135 79 54 65 56 87 62
is_linear=0
shrinkage=0.01


Tree=7
num_leaves=34
num_cat=0
split_feature=0 1 9 3 2 0 2 0 11 4 5 0 11 7 0 1 5 9 4 1 0 2 9 5 4 1 5 7 14 6 5 1 5
split_gain=358.181 75.5447 67.8951 17.8239 13.9836 9.63188 7.84243 3.90386 4.62668 3.63697 3.42557 3.14471 2.90841 2.68179 2.48134 1.10154 0.54287 0.332767 0.744219 0.00184631 0.000835284 0.000697156 0.000350362 0.000296047 0.00023441 0.000146361 0.000139793 9.74553e-05 7.45946e-05 7.40976e-05 6.69325e-05 2.45303e-05 8.74546e-06
threshold=740.50000000000011 2.5000000000000004 1.5000000000000002 2.5000000000000004 27.500000000000004 406.50000000000006 18.500000000000004 539.50000000000011 35.500000000000007 1.5000000000000002 1517.5000000000002 514.00000000000011 33.500000000000007 2.5000000000000004 752.50000000000011 1.5000000000000002 1443.0000000000002 1.5000000000000002 2.5000000000000004 2.5000000000000004 329.50000000000006 30.500000000000004 1.5000000000000002 1921.5000000000002 1.5000000000000002 1.5000000000000002 1412.5000000000002 2.5000000000000004 1.5000000000000002 1.5000000000000002 1423.0000000000002 1.5000000000000002 5664.5000000000009
decision_type=2 2 2 2 2 2 2 2 2 2 2 2 2 2 2 2 2 2 2 2 2 2 2 2 2 2 2 2 2 2 2 2 2
left_child=1 2 3 5 7 9 10 16 -9 -1 -7 17 -6 -13 -2 -8 -4 18 -3 21 -18 22 24 26 -16 30 -19 -25 31 -29 -24 32 -23
right_child=14 11 4 -5 12 6 15 8 -10 -11 -12 13 -14 -15 19 -17 20 23 -20 -21 -22 28 25 27 -26 -27 -28 29 -30 -31 -32 -33 -34
leaf_value=-0.0062020522013601729 -0.011662341284625961 0.018893372677035593 0.01506967702676674 0.0084037509848942024 0.0066608875057755351 -0.0116911442640563 -0.019054095857947002 0.015609992764117397 0.0039886578669971317 0.0048980577406827139 -0.00051324556539542499 0.0078217549240007858 -0.0039983840267287692 0.017285517954827596 -0.018743176230036449 -0.013249244174429383 0.018871619041732873 0.018845445641246641 0.01454393456951068 -0.018931248869968217 0.019034761712599983 -0.01872824907906491 -0.018789432595965074 0.018838477673858704 -0.018818838003968805 -0.018874493236943259 0.018915900503989131 0.018819097468648256 -0.018768056692622648 0.018770774102175636 -0.018840657761765144 -0.018741791723296378 -0.018709726195910097
leaf_weight=6.7447772026061994 5.2427243590354911 9.4670306295156497 4.9880354553461101 7.2437446266412726 5.2477236539125425 5.2425174117088336 9.475412040948866 8.4811347275972349 5.7472245544195166 5.2489382922649384 5.747280478477478 5.9955950379371625 4.9974673837423325 5.9816673696041107 9.4572144299745577 4.9908526539802542 8.4693713337182981 6.475549250841139 6.731082245707511 9.22041107714176 4.9858363568782798 4.9769261181354558 4.9791637063026446 8.9655960500240326 7.2213464081287375 7.2240578085184088 4.9835081249475479 6.4743512570858002 6.72083456814289 6.2231929004192352 5.2300525009632111 8.4616086333990097 5.2250086814165115
leaf_count=27 21 38 20 29 21 21 38 34 23 21 23 24 20 24 38 20 34 26 27 37 20 20 20 36 29 29 20 26 27 25 21 34 21
internal_value=0 0.00862909 0.00267128 -0.00595519 0.0116549 -0.00873258 -0.0122136 0.0148513 0.0109158 -0.00134419 -0.00584549 0.0171444 0.00146144 0.0125481 -0.0182936 -0.0170514 0.0178875 0.0182606 0.017086 -0.0187996 0.0189321 -0.0187792 -0.0188087 0.018835 -0.0187759 -0.01884 0.0188761 0.0188132 -0.0187395 0.0187954 -0.0188157 -0.0187292 -0.0187188
internal_weight=0 148.908 87.6103 44.6935 42.9168 37.4498 25.4561 32.6716 14.2284 11.9937 10.9898 61.2976 10.2452 11.9773 73.9593 14.4663 18.4432 49.3203 16.1981 68.7166 13.4552 59.4962 34.1118 33.1222 16.6786 17.4333 11.4591 21.6631 25.3844 12.6975 10.2092 18.6635 10.2019
internal_count=894 597 351 179 172 150 102 131 57 48 44 246 41 48 297 58 74 198 65 276 54 239 137 133 67 70 46 87 102 51 41 75 41
is_linear=0
shrinkage=0.01


Tree=8
num_leaves=33
num_cat=0
split_feature=0 1 9 3 2 0 2 0 11 4 0 11 15 7 0 1 4 9 4 1 2 0 9 4 7 8 1 6 14 1 0 2
split_gain=351.436 74.1546 66.583 17.4763 13.7272 9.45035 7.70128 3.83842 4.54207 3.56494 3.09487 2.85057 2.71689 2.63574 2.44361 1.08348 0.437938 0.327981 0.732309 0.00174459 0.000658895 0.000494657 0.000331114 0.000221543 0.000165439 0.000201548 0.000138306 9.54406e-05 7.05089e-05 2.3189e-05 4.03925e-06 4.76864e-07
threshold=740.50000000000011 2.5000000000000004 1.5000000000000002 2.5000000000000004 27.500000000000004 406.50000000000006 18.500000000000004 539.50000000000011 35.500000000000007 1.5000000000000002 514.00000000000011 33.500000000000007 1.5000000000000002 2.5000000000000004 752.50000000000011 1.5000000000000002 2.5000000000000004 1.5000000000000002 2.5000000000000004 2.5000000000000004 30.500000000000004 312.50000000000006 1.5000000000000002 1.5000000000000002 2.5000000000000004 2.5000000000000004 1.5000000000000002 2.5000000000000004 1.5000000000000002 1.5000000000000002 885.50000000000011 39.500000000000007
decision_type=2 2 2 2 2 2 2 2 2 2 2 2 2 2 2 2 2 2 2 2 2 2 2 2 2 2 2 2 2 2 2 2
left_child=1 2 3 5 7 9 12 16 -9 -1 17 -6 -7 -12 -2 -8 21 18 -3 20 22 -4 23 -16 25 -19 30 -26 29 31 -24 -22
right_child=14 10 4 -5 11 6 15 8 -10 -11 13 -13 -14 -15 19 -17 -18 24 -20 -21 28 -23 26 -25 27 -27 -28 -29 -30 -31 -32 -33
leaf_value=-0.0061409886001218628 -0.011551083862597263 0.018726935887154603 0.018704408965998176 0.0083218602349405466 0.0065943709272155305 -0.011238841063542639 -0.018883249380161726 0.015465690008293904 0.0039490729572068126 0.0048489450236147841 0.0077452307875728313 -0.0039584190097626077 -0.0012516290673990019 0.017130309733361868 -0.018580829274989764 -0.013124094576686274 0.015432683675831334 0.018657473892457074 0.014410335683350369 -0.018763763403686542 -0.018559294169616707 0.018829471765973549 -0.018657498668743645 -0.018654433065942506 0.018672323778444043 0.018731596907747426 -0.018708569303424346 0.018626760537295447 -0.018605035217257388 -0.018579483326143727 -0.018644906788705 -0.018554965919539059
leaf_weight=6.7437311410903913 5.2403008490800849 9.4557133466005343 6.7174195647239703 7.2418853491544715 5.2476504445075971 4.9910193979740161 9.4655776768922788 8.4746969789266569 5.7467878758907309 5.24908047914505 5.9942906349897367 4.997443750500679 5.9963830262422562 5.9755355566740036 9.4445096254348773 4.9880739450454703 5.72998023033142 7.2123456448316556 6.7255787253379813 9.2097380310296995 4.9698405712842977 5.9763438105583191 5.2227411568164843 7.2121846526861182 9.4518399089574832 7.4654753059148788 7.2152889817953101 8.9510439187288267 6.711970552802085 8.450229212641716 4.9734904021024704 5.2181429266929626
leaf_count=27 21 38 27 29 21 20 38 34 23 21 24 20 24 24 38 20 23 29 27 37 20 24 21 29 38 30 29 36 27 34 20 21
internal_value=0 0.00854916 0.00264591 -0.00589801 0.0115455 -0.00864896 -0.0120987 0.0147148 0.0108119 -0.00133085 0.0169913 0.00144684 -0.00578831 0.0124304 -0.0181331 -0.0168957 0.0177274 0.0180995 0.0169328 -0.0186357 -0.0186158 0.0187633 -0.0186446 -0.0186127 0.0186701 0.0186952 -0.0186751 0.0186502 -0.0185772 -0.0185672 -0.0186514 -0.0185571
internal_weight=0 148.798 87.5661 44.6758 42.8903 37.4339 25.4411 32.6452 14.2215 11.9928 61.2318 10.2451 10.9874 11.9698 73.8684 14.4537 18.4237 49.262 16.1813 68.6281 59.4184 12.6938 34.0682 16.6567 33.0807 14.6778 17.4115 18.4029 25.3502 18.6382 10.1962 10.188
internal_count=894 597 351 179 172 150 102 131 57 48 246 41 44 48 297 58 74 198 65 276 239 51 137 67 133 59 70 74 102 75 41 41
is_linear=0
shrinkage=0.01


Tree=9
num_leaves=33
num_cat=0
split_feature=0 9 0 3 6 0 16 11 8 11 11 4 10 0 5 5 7 5 0 6 11 3 5 5 9 4 5 5 4 5 0 16
split_gain=344.867 65.0979 32.7344 17.6825 15.0705 14.0619 9.5006 10.3642 8.07296 6.74231 6.70279 5.07375 4.45917 2.40784 1.46983 2.53436 1.26386 0.62493 0.154657 0.00139481 0.00105513 0.000919056 0.000747893 0.00035727 0.000322668 0.000238389 0.000188137 0.000164155 0.000149394 3.93754e-05 6.4524e-05 3.50054e-05
threshold=740.50000000000011 1.5000000000000002 375.50000000000006 2.5000000000000004 2.5000000000000004 514.00000000000011 1.5000000000000002 30.500000000000004 2.5000000000000004 41.500000000000007 32.500000000000007 2.5000000000000004 1.5000000000000002 752.50000000000011 3278.0000000000005 1517.5000000000002 1.5000000000000002 1160.5000000000002 453.00000000000006 2.5000000000000004 32.500000000000007 2.5000000000000004 2744.0000000000005 4803.0000000000009 1.5000000000000002 1.5000000000000002 2330.0000000000005 2780.5000000000005 1.0000000180025095e-35 1412.5000000000002 855.50000000000011 1.5000000000000002
decision_type=2 2 2 2 2 2 2 2 2 2 2 2 2 2 2 2 2 2 2 2 2 2 2 2 2 2 2 2 2 2 2 2
left_child=1 2 8 4 9 16 7 -7 -1 14 12 -9 -10 -2 15 -4 -3 -18 19 20 -19 23 -22 24 25 -15 -21 -23 -25 -26 -31 -30
right_child=13 5 3 -5 -6 6 -8 11 10 -11 -12 -13 -14 21 -16 -17 17 18 -20 26 22 27 -24 28 29 -27 -28 -29 31 30 -32 -33
leaf_value=0.016992158786288358 -0.011441606562986113 0.013533944439133846 -0.015171552872240476 0.009514217063501423 0.0073533644900550567 0.013049153216142296 0.016976336575750726 -0.0089047159239673546 -0.0061667076145312666 -0.00062190424771550441 0.01394794458248323 0.0048509412378796033 0.0068950946215079944 -0.018416307243205338 -0.01659637467471238 -0.0065391765450661752 0.014611370306531273 0.018719524555959891 0.016749741290791733 0.018562850208446755 0.018660030233043853 -0.018591653823845099 0.018504737331831583 -0.018457059543852836 -0.018490316439299298 -0.018486484448616891 0.018488365543222984 -0.018520420505285115 -0.018385882408639215 -0.018550276503962383 -0.018499311010359377 -0.018419826466639408
leaf_weight=9.7122669219970721 5.237551048398017 7.4650199413299552 7.4825638234615379 7.2347838282585135 5.4860918521881095 8.225170165300371 9.2262390106916445 5.243356376886366 4.9896323084831256 5.2362567186355582 5.9741964489221564 5.4879265129566193 5.4887620210647583 9.6777843832969683 8.215596988797186 6.2349200993776321 4.9726222157478324 9.4499788731336611 5.2203902155160895 5.2183149307966223 5.9668829441070539 5.7169192582368833 6.4574740380048752 8.9368891566991824 4.9664765745401374 9.6844180822372419 9.6845951527357084 7.4520716667175293 5.9537500590085966 4.9693690389394742 4.967027485370636 6.2039374858140945
leaf_count=39 21 30 30 29 22 33 37 21 20 21 24 22 22 39 33 25 20 38 21 21 24 23 26 36 20 39 39 30 24 20 20 25
internal_value=0 0.00847083 0.0010705 -0.00463082 -0.00776464 0.0143876 0.0086539 0.00460331 0.00976256 -0.0108173 0.0054948 -0.00187014 0.000675288 -0.0179768 -0.0132513 -0.0112479 0.0173561 0.0179635 0.0183604 0.0185891 0.0186399 -0.0184763 0.0185793 -0.0184584 -0.0184783 -0.0184514 0.0185144 -0.0185513 -0.018426 -0.0185133 -0.0185248 -0.0184032
internal_weight=0 148.673 66.0551 39.8902 32.6554 82.618 28.1827 18.9565 26.1649 27.1693 16.4526 10.7313 10.4784 73.7662 21.9331 13.7175 54.4353 46.9703 41.9976 36.7772 21.8743 68.5286 12.4244 55.3597 34.2651 19.3622 14.9029 13.169 21.0946 14.9029 9.9364 12.1577
internal_count=894 597 265 160 131 332 113 76 105 109 66 43 42 297 88 55 219 189 169 148 88 276 50 223 138 78 60 53 85 60 40 49
is_linear=0
shrinkage=0.01


Tree=10
num_leaves=33
num_cat=0
split_feature=0 1 9 9 1 8 0 0 0 0 4 2 5 2 0 4 11 0 0 2 1 5 9 1 4 8 14 10 0 16 7 0
split_gain=350.274 70.5432 26.6772 14.3872 19.0931 13.0334 9.08283 7.42913 7.32834 6.00193 5.30427 3.89797 5.6994 1.85543 1.24353 0.648307 0.206859 0.324975 0.0161079 0.00122208 0.000589086 0.000527522 0.000393222 0.000371602 0.000238485 9.4446e-05 6.58684e-05 6.52661e-05 5.18625e-05 2.13376e-05 1.07364e-05 3.49684e-06
threshold=740.50000000000011 1.5000000000000002 1.5000000000000002 1.5000000000000002 2.5000000000000004 2.5000000000000004 375.50000000000006 375.50000000000006 487.50000000000006 752.50000000000011 1.5000000000000002 31.500000000000004 6514.0000000000009 18.500000000000004 517.50000000000011 2.5000000000000004 42.500000000000007 428.00000000000006 533.50000000000011 30.500000000000004 2.5000000000000004 1903.0000000000002 1.5000000000000002 2.5000000000000004 1.5000000000000002 3.5000000000000004 1.5000000000000002 1.5000000000000002 857.50000000000011 1.5000000000000002 1.5000000000000002 872.00000000000011
decision_type=2 2 2 2 2 2 2 2 2 2 2 2 2 2 2 2 2 2 2 2 2 2 2 2 2 2 2 2 2 2 2 2
left_child=1 2 5 4 8 -1 -4 -7 -3 -2 -8 16 -13 -9 15 -6 18 -18 21 20 22 27 24 -23 -11 -24 28 -5 -21 -25 -30 -27
right_child=9 3 6 11 14 7 10 13 -10 19 -12 12 -14 -15 -16 -17 17 -19 -20 26 -22 23 25 29 -26 31 -28 -29 30 -31 -32 -33
leaf_value=0.0032929254958684252 -0.0069511435698236847 0.0087881852868145465 0.018585300355626954 0.018471051812534018 0.018478876774451158 -0.0022845529120922936 0.010422623400444609 -0.011099261226949948 -0.0045730509351745545 -0.018265972623243139 -0.0029010908238763494 0.0040508754853964598 0.018817001257563228 -0.018832913707149245 0.011060089345377937 0.014496261093367451 0.018364096289808826 0.015368069469498849 0.018883370360122331 -0.018245760128510941 -0.018443679594710872 0.018425150664865133 -0.01839783694249874 0.018340388844236624 -0.018344144295170395 -0.018358609773779021 -0.018300040958875045 0.018423190574365596 -0.018268127270383384 0.018313607518759413 -0.018288943271658951 -0.018346734881662562
leaf_weight=8.2339326441288012 4.9854833781719199 7.2400934100151089 5.9638841748237637 5.4621188938617724 9.434681668877607 5.7439894080162075 5.7345882803201658 4.9874904602766028 9.4799315035343152 7.680133327841757 6.238469272851944 5.2322713285684568 5.2234978973865509 8.2070114612579328 4.9851540923118582 7.2116685807704917 8.6803241670131666 6.2108728140592566 8.7153059691190702 9.4121486246585899 6.9500850588083258 5.7074742466211328 8.6834907680749893 5.9507999569177628 7.934704527258873 4.9599488526582718 6.195975497364997 5.9559541791677475 4.9549931436777097 5.9490684270858765 4.9561571478843689 4.9592395573854446
leaf_count=33 20 29 24 22 38 23 23 20 38 31 25 21 21 33 20 29 35 25 35 38 28 23 35 24 32 20 25 24 20 24 20 20
internal_value=0 0.00944167 -0.000962471 0.0140683 0.00923812 -0.00721055 0.00850266 -0.0117772 0.00121262 -0.0175348 0.0034804 0.0170047 0.0114277 -0.0159096 0.0154414 0.0167535 0.0181126 0.0171145 0.0185064 -0.018326 -0.0183597 0.0183931 -0.0183427 0.0183588 -0.0183057 -0.0183738 -0.0182717 0.0184461 -0.0182626 0.018327 -0.0182785 -0.0183527
internal_weight=0 146.549 45.1094 101.439 38.3515 27.1724 17.9369 18.9385 16.72 71.6724 11.9731 63.0877 10.4558 13.1945 21.6315 16.6464 52.6319 14.8912 37.7407 66.6869 41.1676 29.0254 34.2175 17.6073 15.6148 18.6027 25.5193 11.4181 19.3233 11.8999 9.91115 9.91919
internal_count=878 589 181 408 154 109 72 76 67 289 48 254 42 53 87 67 212 60 152 269 166 117 138 71 63 75 103 46 78 48 40 40
is_linear=0
shrinkage=0.01


Tree=11
num_leaves=33
num_cat=0
split_feature=0 1 9 9 1 8 0 0 0 0 4 2 5 2 0 4 11 0 0 2 5 1 1 9 4 10 8 14 0 16 7 0
split_gain=343.792 69.245 26.1611 14.1504 18.7504 12.7856 8.92483 7.29592 7.18337 5.91043 5.20147 3.84022 5.59994 1.82553 1.22516 0.638997 0.203398 0.32076 0.015252 0.00115658 0.000588327 0.000557378 0.00041575 0.000372147 0.000225725 0.000116669 8.93607e-05 6.23486e-05 4.91001e-05 2.01939e-05 1.01626e-05 3.30651e-06
threshold=740.50000000000011 1.5000000000000002 1.5000000000000002 1.5000000000000002 2.5000000000000004 2.5000000000000004 375.50000000000006 375.50000000000006 487.50000000000006 752.50000000000011 1.5000000000000002 31.500000000000004 6514.0000000000009 18.500000000000004 517.50000000000011 2.5000000000000004 42.500000000000007 428.00000000000006 554.50000000000011 30.500000000000004 1903.0000000000002 2.5000000000000004 2.5000000000000004 1.5000000000000002 1.5000000000000002 1.5000000000000002 3.5000000000000004 1.5000000000000002 857.50000000000011 1.5000000000000002 1.5000000000000002 872.00000000000011
decision_type=2 2 2 2 2 2 2 2 2 2 2 2 2 2 2 2 2 2 2 2 2 2 2 2 2 2 2 2 2 2 2 2
left_child=1 2 5 4 8 -1 -4 -7 -3 -2 -8 16 -13 -9 15 -6 18 -18 20 21 25 23 -22 24 -11 -5 -25 28 -21 -24 -30 -28
right_child=9 3 6 11 14 7 10 13 -10 19 -12 12 -14 -15 -16 -17 17 -19 -20 27 22 -23 29 26 -26 -27 31 -29 30 -31 -32 -33
leaf_value=0.0032598673898411265 -0.0068842853032896117 0.0087011985796720225 0.018427276639160467 0.0183320665645498 0.018323661572281574 -0.0022617952134233329 0.010323588351957201 -0.010994295575205796 -0.0045280713043665058 -0.018116357928864506 -0.0028718789216167608 0.0040109726408914239 0.018652963347282354 -0.018668544462464909 0.01095573782624666 0.014367137036898285 0.018211905798512954 0.015233238402318537 0.018739176924271475 -0.018096674717501451 0.018278212770063435 -0.018289376994030628 0.018188819836189959 -0.018244752003875455 -0.018192477322425724 0.01826943323805838 -0.018206561163543335 -0.018149534678268221 -0.018118458821596992 0.018162743291987318 -0.018138729186313842 -0.0181950039680337
leaf_weight=8.2342565208673495 4.9835714995861045 7.2393520474433926 5.9549217075109508 5.9500245451927203 9.4195296019315773 5.7437678426504162 5.7317187786102277 4.9847699254751197 9.478367090225218 7.6661937832832319 6.2389036417007446 5.2314850538969022 5.2167731672525406 8.1965298950672132 4.9823245108127585 7.2037576586008063 8.6654079258441907 6.2032255083322516 7.9598274677991858 9.3948773443698936 5.946205437183381 6.9386903196573249 5.9404360055923462 8.6688598543405533 7.9209145456552505 5.9460682570934296 4.9513995796442032 6.1849371939897528 4.9460095167160016 5.9385502338409424 4.9472731798887253 4.95063216984272
leaf_count=33 20 29 24 24 38 23 23 20 38 31 25 21 21 33 20 29 35 25 32 38 24 28 24 35 32 24 20 25 20 24 20 20
internal_value=0 0.00935641 -0.000953367 0.0139439 0.00915252 -0.00714193 0.00842304 -0.0116677 0.00120066 -0.0173885 0.00344631 0.0168587 0.0113217 -0.0157664 0.0153054 0.0166091 0.0179596 0.0169692 0.0183504 -0.0181749 0.0182463 -0.0182077 0.01821 -0.0181911 -0.018155 0.0183008 -0.0182213 -0.0181219 -0.018113 0.0181758 -0.0181286 -0.0182008
internal_weight=0 146.406 45.0849 101.321 38.3233 27.1593 17.9255 18.9251 16.7177 71.5534 11.9706 62.998 10.4483 13.1813 21.6056 16.6233 52.5497 14.8686 37.6811 66.5698 29.7213 41.0967 17.8252 34.158 15.5871 11.8961 18.5709 25.4731 19.2882 11.879 9.89328 9.90203
internal_count=878 589 181 408 154 109 72 76 67 289 48 254 42 53 87 67 212 60 152 269 120 166 72 138 63 48 75 103 78 48 40 40
is_linear=0
shrinkage=0.01


Tree=12
num_leaves=34
num_cat=0
split_feature=0 1 9 1 9 8 0 0 0 2 0 4 2 0 0 5 5 15 0 9 2 9 1 9 2 5 4 8 0 0 5 9 0
split_gain=337.472 67.9802 25.6568 13.9292 18.3446 12.544 8.77185 7.16685 7.04147 6.18724 5.82281 5.10092 1.79707 1.38186 2.63774 0.336855 1.15218 0.148205 0.00721044 0.00187615 0.0010951 0.000931215 0.000527624 0.000352367 0.000311894 0.000257859 0.000213744 8.45874e-05 5.61658e-05 5.04993e-05 4.05979e-05 1.85841e-05 3.12832e-06
threshold=740.50000000000011 1.5000000000000002 1.5000000000000002 2.5000000000000004 1.5000000000000002 2.5000000000000004 375.50000000000006 375.50000000000006 487.50000000000006 26.500000000000004 752.50000000000011 1.5000000000000002 18.500000000000004 514.00000000000011 639.50000000000011 1883.0000000000002 1529.5000000000002 1.5000000000000002 554.50000000000011 1.5000000000000002 30.500000000000004 1.5000000000000002 2.5000000000000004 1.5000000000000002 26.500000000000004 2330.0000000000005 1.5000000000000002 3.5000000000000004 336.50000000000006 857.50000000000011 8132.0000000000009 1.5000000000000002 872.00000000000011
decision_type=2 2 2 2 2 2 2 2 2 2 2 2 2 2 2 2 2 2 2 2 2 2 2 2 2 2 2 2 2 2 2 2 2
left_child=1 2 5 4 8 -1 -4 -7 -3 18 -2 -8 -9 15 -15 16 17 -5 25 -19 22 -17 23 26 28 -6 -12 -25 -23 31 -31 -22 -29
right_child=10 3 6 13 9 7 11 12 -10 -11 20 -13 -14 14 -16 21 -18 19 -20 -21 29 24 -24 27 -26 -27 -28 32 -30 30 -32 -33 -34
leaf_value=0.0032271598048321162 -0.006818207674937125 0.0086153921202445395 0.018273468449235025 0.016156956469858791 0.018196672641361437 -0.0022392690287393428 0.010225993610366187 -0.010890928134920519 -0.0044835731875830977 0.0055420357628867302 -0.017970643671569531 -0.0028429749006759686 -0.018508628906497907 0.0091108033799274808 0.018632654551620088 0.018191513271745802 0.012199167803887929 0.018331020831238738 0.018591666046825474 0.018088044329937675 -0.017948629645017231 0.018023131048503706 -0.018139150189030461 -0.018095696834269055 0.018120804201294773 0.018095797252174303 -0.018044786731280796 -0.018058504078535213 0.018064597410303914 -0.018007921319437268 -0.01797369210246812 -0.017974316674417092 -0.018047252027466508
leaf_weight=8.2345334589481372 4.9815605431795111 7.2383437901735332 5.9450429826974895 4.9490820020437285 5.1982062160968798 5.7435336858034161 5.7285725027322751 4.9817752093076697 9.476721063256262 4.9922227263450614 7.6511459648609144 6.2393079698085785 8.1847332268953306 6.2181146442890149 5.4673419147729874 7.6723396480083492 4.9537048637866965 5.2058864384889594 5.7137756198644629 8.1576324999332428 6.1683384478092211 9.6325810253620165 6.9262561351060858 8.652942106127739 6.4295038431882849 4.9442640393972397 7.9059613645076752 4.9421209841966629 4.942532241344451 6.1734031438827497 7.8982262015342712 5.1832663416862488 4.9412974864244461
leaf_count=33 20 29 24 20 21 23 23 20 38 20 31 25 33 25 22 31 20 21 23 33 25 39 28 35 26 20 32 20 20 25 32 21 20
internal_value=0 0.00927283 -0.000944411 0.0138222 0.0089935 -0.0070744 0.00834474 -0.0115603 0.00118884 0.0152508 -0.0172458 0.00341265 -0.0156263 0.0166729 0.0135658 0.0173719 0.0164778 0.0176352 0.0183076 0.0181827 -0.0180276 0.0180972 -0.0180596 -0.0180434 0.0180628 0.0181475 -0.0180083 -0.0180729 0.0180372 -0.0179761 -0.0179887 -0.0179604 -0.0180529
internal_weight=0 146.25 45.0575 101.192 37.5635 27.1446 17.9129 18.91 16.7151 20.8485 71.4245 11.9679 13.1665 63.6287 11.6855 51.9433 23.2663 18.3126 15.8562 13.3635 66.443 28.677 41.0197 34.0935 21.0046 10.1425 15.5571 18.5364 14.5751 25.4232 14.0716 11.3516 9.88342
internal_count=878 589 181 408 151 109 72 76 67 84 289 48 53 257 47 210 94 74 64 54 269 116 166 138 85 41 63 75 59 103 57 46 40
is_linear=0
shrinkage=0.01


Tree=13
num_leaves=34
num_cat=0
split_feature=0 1 0 15 1 2 2 4 0 12 0 2 2 0 7 0 5 5 5 15 2 7 8 1 3 5 7 2 14 0 12 5 7
split_gain=331.31 66.748 20.3096 19.3243 13.7104 13.0186 10.7037 7.61047 5.73886 4.87247 3.52846 2.55052 1.48833 1.36603 2.77122 0.945465 0.734817 0.332749 1.13519 0.146057 0.00103734 0.00058818 0.000578505 0.000499683 0.000206058 0.000189635 0.000142128 6.09506e-05 5.66507e-05 4.4116e-05 3.83163e-05 1.07559e-05 9.17496e-06
threshold=740.50000000000011 1.5000000000000002 375.50000000000006 1.5000000000000002 2.5000000000000004 27.500000000000004 31.500000000000004 1.5000000000000002 752.50000000000011 1.5000000000000002 589.50000000000011 21.500000000000004 9.5000000000000018 514.00000000000011 2.5000000000000004 487.50000000000006 5470.0000000000009 1883.0000000000002 1529.5000000000002 1.5000000000000002 30.500000000000004 3.5000000000000004 3.5000000000000004 2.5000000000000004 2.5000000000000004 1412.5000000000002 2.5000000000000004 16.500000000000004 1.5000000000000002 857.50000000000011 1.5000000000000002 3148.5000000000005 1.5000000000000002
decision_type=2 2 2 2 2 2 2 2 2 2 2 2 2 2 2 2 2 2 2 2 2 2 2 2 2 2 2 2 2 2 2 2 2
left_child=1 2 7 11 5 9 10 -1 -2 -3 -5 -4 -11 17 -15 -14 -7 18 19 -6 23 -21 26 24 25 -10 -19 -27 29 -22 -29 -24 -31
right_child=8 4 3 6 13 16 -8 -9 20 12 -12 -13 15 14 -16 -17 -18 22 -20 21 28 -23 31 -25 -26 27 -28 30 -30 32 -32 -33 -34
leaf_value=0.0027705820798884016 -0.0067528959985026817 0.0046526081479637263 -0.0097017860302163958 -0.00040329178768508655 0.016022513020965776 -0.0035907478857338483 -0.011231550322794433 0.017346334183717206 -0.017852390198258853 0.010355279647332367 0.010464636076620236 -0.018814257216727207 0.018451481037516818 0.008482530135039355 0.018228725064719568 0.013483955746706043 0.0018375321516193922 0.017946841653171005 0.012091797881510435 0.018088200582911964 -0.017809942187529081 0.017951956159258819 0.01802284922175303 -0.017992846627221695 -0.01795933456198047 -0.017936496770531767 0.017891396279545484 -0.017877620284772487 -0.017860343989536426 -0.017830610064531047 -0.017910465983005171 0.018002228233098314 -0.017849909361097406
leaf_weight=8.9526814669370633 4.9794537872076026 6.2027358114719418 5.2254785001277941 4.9751323759555834 4.9407446831464812 4.9897329658269864 4.9737453162670127 5.9715760201215735 9.362270116806032 5.7180180102586773 7.4771354347467422 7.4515998810529709 8.918758958578108 5.7309959232807142 5.9425682425498962 6.7171199023723593 4.9853112697601318 9.1283276528120059 4.9477444589138022 8.1566295325756055 9.3563126921653801 5.1815247237682351 5.1860637515783328 6.9128160923719397 4.9353462755680075 5.1804596185684231 9.3678571730852109 6.16184125840664 6.1602052599191657 4.9259144216775876 8.3841671943664515 4.9378539472818375 4.9273725748062134
leaf_count=36 20 25 21 20 20 20 20 24 38 23 30 30 36 23 24 27 20 37 20 33 38 21 21 28 20 21 38 25 25 20 34 20 20
internal_value=0 0.00919089 -0.000935598 -0.00566442 0.0137031 0.00891119 0.0011693 0.00860271 -0.0171067 0.0124547 0.0061225 -0.0150581 0.0147209 0.0165345 0.0134439 0.0163174 -0.000877811 0.0172303 0.016341 0.0174912 -0.0178842 0.0180353 0.017952 -0.0179153 -0.0178996 -0.0178895 0.0179188 -0.017907 -0.017834 -0.0178255 -0.0178966 0.0180128 -0.0178403
internal_weight=0 146.079 45.0273 30.1031 101.052 37.5317 17.426 14.9243 71.2862 27.5566 12.4523 12.6771 21.3539 63.5203 11.6736 15.6359 9.97504 51.8467 23.2266 18.2789 66.3067 13.3382 28.6201 40.9369 34.0241 29.0887 18.4962 19.7265 25.3698 19.2096 14.546 10.1239 9.85329
internal_count=878 589 181 121 408 151 70 60 289 111 50 51 86 257 47 63 40 210 94 74 269 54 116 166 138 118 75 80 103 78 59 41 40
is_linear=0
shrinkage=0.01


Tree=14
num_leaves=35
num_cat=0
split_feature=0 1 0 15 1 2 2 11 0 11 2 0 2 0 7 5 0 5 5 15 2 11 8 1 11 3 5 11 0 2 14 0 12 7
split_gain=325.281 65.5448 19.9152 18.9617 13.5119 12.7761 10.4942 7.94692 5.65841 5.19823 7.69983 3.45905 2.50918 1.35018 2.72957 0.720243 0.66433 0.32889 1.11903 0.14404 0.00098306 0.000730037 0.000548319 0.000473422 0.000371671 0.000195252 0.000179686 0.000149213 6.43979e-05 5.77509e-05 5.36947e-05 4.18202e-05 3.63118e-05 8.69605e-06
threshold=740.50000000000011 1.5000000000000002 375.50000000000006 1.5000000000000002 2.5000000000000004 27.500000000000004 31.500000000000004 34.500000000000007 752.50000000000011 30.500000000000004 10.500000000000002 589.50000000000011 21.500000000000004 514.00000000000011 2.5000000000000004 5470.0000000000009 533.50000000000011 1883.0000000000002 1529.5000000000002 1.5000000000000002 30.500000000000004 34.500000000000007 3.5000000000000004 2.5000000000000004 35.500000000000007 2.5000000000000004 1412.5000000000002 30.500000000000004 288.50000000000006 16.500000000000004 1.5000000000000002 857.50000000000011 1.5000000000000002 1.5000000000000002
decision_type=2 2 2 2 2 2 2 2 2 2 2 2 2 2 2 2 2 2 2 2 2 2 2 2 2 2 2 2 2 2 2 2 2 2
left_child=1 2 7 12 5 9 11 -1 -2 10 -3 -5 -4 17 -15 -7 -11 18 19 -6 23 -21 27 25 -24 26 -10 -19 -29 -28 31 -22 -31 -33
right_child=8 4 3 6 13 15 -8 -9 20 16 -12 -13 -14 14 -16 -17 -18 22 -20 21 30 -23 24 -25 -26 -27 29 28 -30 32 -32 33 -34 -35
leaf_value=0.0031784838652895572 -0.0066883354453009672 -0.0016115852114967555 -0.0096088249715279243 -0.00039925570094861198 0.015890998217675333 -0.0035551180549959426 -0.011124743545698885 0.018492774242193196 -0.017713455757669253 0.01829625199202994 0.013932488363843342 0.010361550360595738 -0.018650704438955279 0.008401831204972187 0.018080116517564658 0.0018191867951847763 0.013845884554731045 0.017820872467816242 0.011986120511795196 0.017977563472848696 -0.017672079668902094 0.017827819413979408 0.017928921886285025 -0.01785032096734053 0.01780757658267694 -0.017817670772665394 -0.017795415177237334 0.017739231942824764 0.01778440483850089 -0.017738040868663787 -0.017721205070962667 -0.01769222602326791 -0.017770050875599783 -0.017711035921914867
leaf_weight=9.713908374309538 4.9772546142339698 5.2197116315364864 5.2232829779386538 4.9751723259687441 4.9318624883890196 4.9893451631069166 4.9712943732738486 5.2036656737327567 9.3414491564035433 8.6554940193891508 8.1822838038206083 7.4760145395994186 7.4418236315250397 5.7281952202320081 5.9315534383058548 4.9852298200130463 5.4765182286500922 5.6635853946208981 4.9414845556020728 5.6763921231031418 9.3351152837276512 7.6344957649707794 5.1790167242288607 6.8984029591083518 4.923976719379425 4.924892157316207 5.1693700700998333 7.1321283131837827 5.6605455726385117 6.1482925117015848 6.1465547382831565 4.9148543179035169 8.3660034537315333 4.9164030104875565
leaf_count=39 20 21 21 20 20 20 20 21 38 35 33 30 30 23 24 20 22 23 20 23 38 31 21 28 20 20 21 29 23 25 25 20 34 20
internal_value=0 0.00910918 -0.000926711 -0.0056107 0.013585 0.00882756 0.00115784 0.00852054 -0.0169709 0.0123403 0.0078785 0.00606181 -0.0149217 0.0163995 0.0133254 -0.000869074 0.0165716 0.0170922 0.0162074 0.0173508 -0.0177445 0.0178917 0.0178106 -0.0177748 0.0178698 -0.0177595 -0.0177496 0.0177781 0.0177592 -0.0177667 -0.0176955 -0.0176872 -0.0177565 -0.0177016
internal_weight=0 145.917 45.0052 30.0876 100.912 37.5086 17.4225 14.9176 71.1386 27.534 13.402 12.4512 12.6651 63.4032 11.6597 9.97457 14.132 51.7435 23.1842 18.2428 66.1613 13.3109 28.5593 40.8484 10.103 33.95 29.0251 18.4563 12.7927 19.6837 25.3129 19.1664 14.5143 9.83126
internal_count=878 589 181 121 408 151 70 60 289 111 54 50 51 257 47 40 57 210 94 74 269 54 116 166 41 138 118 75 52 80 103 78 59 40
is_linear=0
shrinkage=0.01


Tree=15
num_leaves=34
num_cat=0
split_feature=1 3 2 1 2 9 7 5 8 5 9 2 5 8 5 11 10 11 16 4 11 16 14 5 8 5 5 11 5 5 1 16 11
split_gain=140.819 34.8712 20.5218 16.6217 11.7166 10.3889 7.14216 9.66202 7.12858 6.38242 5.64021 6.27836 4.56421 4.12796 4.08706 2.36146 2.27069 1.6971 1.60618 1.46249 1.88084 1.23582 1.07106 1.06285 1.00766 0.80387 0.918301 0.77897 0.400714 0.283455 0.198536 0.00345597 0.00130166
threshold=2.5000000000000004 2.5000000000000004 18.500000000000004 1.5000000000000002 24.500000000000004 1.5000000000000002 2.5000000000000004 4446.5000000000009 2.5000000000000004 1536.0000000000002 1.5000000000000002 30.500000000000004 1365.0000000000002 2.5000000000000004 1517.5000000000002 29.500000000000004 1.5000000000000002 38.500000000000007 1.5000000000000002 2.5000000000000004 31.500000000000004 1.5000000000000002 1.5000000000000002 740.50000000000011 2.5000000000000004 3647.0000000000005 1596.0000000000002 27.500000000000004 1883.0000000000002 3954.0000000000005 1.5000000000000002 1.5000000000000002 32.500000000000007
decision_type=2 2 2 2 2 2 2 2 2 2 2 2 2 2 2 2 2 2 2 2 2 2 2 2 2 2 2 2 2 2 2 2 2
left_child=1 2 3 8 9 -5 7 13 -1 17 19 15 23 27 -15 -12 -7 -3 -13 24 -21 -11 28 -10 30 26 -24 -2 -8 -26 -4 -30 -31
right_child=6 4 10 5 -6 16 22 -9 12 21 11 18 -14 14 -16 -17 -18 -19 -20 20 -22 -23 25 -25 29 -27 -28 -29 31 32 -32 -33 -34
leaf_value=0.0021428276495321112 0.012585019999039427 -0.0022856552747048601 -0.011688878076513599 -0.003742465966665688 -0.0054649281612125971 0.014893486043507445 0.014522856017686559 -0.0012126655953612615 -0.010561091675542825 0.0090639459088685381 0.0019868198581990391 -0.015457606600130782 -0.0051265846796529901 0.012767603788550866 0.0028111613951260946 -0.0065477004467447931 0.0056163402287849684 0.0059894273612879183 -0.0089283176273295684 -0.0064545822749233371 -0.014971884599506482 0.015569812061551409 0.01436340221976725 -0.016371852227433165 -0.015363279788351936 0.016352889779050812 0.0083960736044068306 0.017720331673218313 0.01798978429107503 -0.017792856368498162 -0.014367512389681739 0.017643749548863 -0.018022758222381058
leaf_weight=5.4529661834239986 4.9278234392404574 4.9560745507478767 5.9377783089876193 9.695435509085657 9.6441978365182859 5.6733752489089948 5.410638019442561 7.8884556889533988 4.9450108259916332 5.1908532083034498 4.9533730745315578 9.1596074402332288 9.151571571826933 8.6323830187320727 7.8923421800136557 9.3841318935155851 4.931781217455864 4.9573303610086441 6.4001038074493399 4.9425859302282316 5.4531643092632294 6.6733380258083344 5.4174152761697751 8.6610659509897214 7.8786432743072536 5.1679507493972769 4.9217272996902466 7.3739271312952042 5.9039073437452299 4.9202167391777021 5.1817352920770645 5.6467251628637314 4.9306018799543381
leaf_count=22 20 20 24 39 39 23 22 32 20 21 20 37 37 35 32 38 20 20 26 20 22 27 22 35 32 21 20 30 24 20 21 23 20
internal_value=0 -0.00564759 -0.00814704 -0.003161 0.00371115 0.0037393 0.0116153 0.0085938 -0.00812651 0.00777478 -0.0116453 -0.00837305 -0.0105872 0.0112774 0.00801233 -0.00359916 0.0105793 0.00185241 -0.0127719 -0.0141382 -0.0109224 0.0127233 0.015032 -0.01426 -0.015297 0.0131325 0.0115228 0.0156632 0.0167686 -0.0167771 -0.0129371 0.0178206 -0.0179079
internal_weight=0 149.075 117.653 48.5112 31.4218 20.3006 69.1833 36.7149 28.2106 21.7776 69.1419 29.8972 22.7576 28.8265 16.5247 14.3375 10.6052 9.9134 15.5597 39.2447 10.3958 11.8642 32.4684 13.6061 28.849 15.5071 10.3391 12.3018 16.9613 17.7295 11.1195 11.5506 9.85082
internal_count=884 603 476 196 127 82 281 149 114 88 280 121 92 117 67 58 43 40 63 159 42 48 132 55 117 63 42 50 69 72 45 47 40
is_linear=0
shrinkage=0.01


Tree=16
num_leaves=34
num_cat=0
split_feature=0 1 3 2 6 1 11 0 15 0 0 0 15 4 10 0 7 0 4 2 8 1 2 7 8 3 8 2 10 14 16 2 2
split_gain=296.932 59.2932 28.446 17.663 13.158 9.71683 8.79158 7.50535 6.53155 9.19617 4.85172 4.40346 3.65776 3.07383 4.53583 2.73422 3.04702 2.3478 0.393577 0.358473 0.680195 0.00362728 0.00141956 0.000957909 0.000988616 0.000778746 0.000450086 0.000261602 0.000152432 0.000136036 8.3045e-05 2.83127e-05 1.84643e-07
threshold=740.50000000000011 2.5000000000000004 2.5000000000000004 24.500000000000004 2.5000000000000004 1.5000000000000002 27.500000000000004 655.00000000000011 1.5000000000000002 658.50000000000011 379.50000000000006 752.50000000000011 1.5000000000000002 1.0000000180025095e-35 2.5000000000000004 514.00000000000011 2.5000000000000004 559.50000000000011 2.5000000000000004 21.500000000000004 2.5000000000000004 2.5000000000000004 30.500000000000004 2.5000000000000004 2.5000000000000004 2.5000000000000004 3.5000000000000004 18.500000000000004 2.5000000000000004 1.5000000000000002 1.5000000000000002 42.500000000000007 40.500000000000007
decision_type=2 2 2 2 2 2 2 2 2 2 2 2 2 2 2 2 2 2 2 2 2 2 2 2 2 2 2 2 2 2 2 2 2
left_child=1 2 3 4 5 6 -1 -7 -5 17 -8 -2 -12 -4 -15 18 -17 -10 23 20 -20 22 25 24 -3 26 27 -13 -28 -25 31 -24 -32
right_child=11 15 13 8 -6 7 10 -9 9 -11 12 21 -14 14 -16 16 -18 -19 19 -21 -22 -23 30 29 -26 -27 28 -29 -30 -31 32 -33 -34
leaf_value=0.0069916369938904863 -0.0085839689234560746 0.017570040481305664 0.017153408248665326 -0.015857058581198659 0.016984206013517283 0.0019461591079467991 0.0012794637783718023 0.01697370814301263 0.0063327401698469133 -0.014911401695447029 -0.015525962719780271 -0.01763091257184592 -0.0041171845784741716 0.01459568509851196 0.0026000030871327347 0.00595046983540512 0.01620548148338773 -0.0033762182948409696 0.017623389170102321 0.017629538435000827 0.01309543022439291 -0.017743083422178764 -0.017460185518877899 0.017491486144939873 0.0177319609598455 -0.01767604522308475 -0.017476723968872888 -0.017542825087616818 -0.017539122932474116 0.017560617906003616 -0.017484270524246306 -0.017430147025310389 -0.017487016767834082
leaf_weight=6.2239127457141903 5.9669887423515311 8.3366583883762377 8.9059213548898715 6.9412856251001385 5.9468449205160132 9.1878207325935346 4.9712270349264172 5.2070161402225486 4.9870798736810666 5.210348740220069 6.4491166025400144 6.8732683062553406 4.9804118424654007 7.4446264058351499 5.4669029861688614 5.4732490181922895 6.1563243269920349 4.9756151735782623 5.3990105688571957 6.8721977025270453 8.605821952223776 8.8539838939905149 7.0963948369026184 6.3660974353551847 6.8847199231386176 5.4046759307384482 7.5882858335971841 6.6172520220279694 8.0871913731098157 5.1483588069677353 4.8963479846715927 5.6249770671129227 4.8966448456048965
leaf_count=25 24 34 36 28 24 37 20 21 20 21 26 28 20 30 22 22 25 20 22 28 35 36 29 26 28 22 31 27 33 21 20 23 20
internal_value=0 0.00801159 0.00275229 -0.000560401 0.00317708 0.000959093 -0.00312748 0.00738204 -0.00782203 -0.0041462 -0.00696758 -0.0168103 -0.0105546 0.0126339 0.00951656 0.0157261 0.0113791 0.00148385 0.0167878 0.0157589 0.014841 -0.0175548 -0.0175255 0.0175912 0.0176433 -0.0175658 -0.0175454 -0.0175877 -0.0175089 0.0175224 -0.0174638 -0.0174469 -0.0174856
internal_weight=0 146.141 86.8981 65.0807 42.9664 37.0195 22.6247 14.3948 22.1143 15.173 16.4008 71.906 11.4295 21.8175 12.9115 59.2424 11.6296 9.9627 47.6129 20.877 14.0048 65.939 57.085 26.7358 15.2214 34.5707 29.166 13.4905 15.6755 11.5145 22.5144 12.7214 9.79299
internal_count=884 591 350 262 173 149 91 58 89 61 66 293 46 88 52 241 47 40 194 85 57 269 233 109 62 141 119 55 64 47 92 52 40
is_linear=0
shrinkage=0.01


Tree=17
num_leaves=35
num_cat=0
split_feature=1 3 2 9 2 1 2 5 7 5 5 6 11 8 5 2 5 4 10 11 5 5 16 14 5 5 8 1 11 16 5 5 11 16
split_gain=135.786 33.5909 19.8672 14.7158 13.4532 12.094 11.2734 9.02636 6.9296 9.33535 6.1975 5.70147 4.43726 4.01603 3.99342 3.20448 6.81845 5.44207 1.99329 1.65805 1.29146 2.41335 1.22044 1.04908 0.792399 0.898119 0.789947 0.82702 0.752783 0.725909 0.39057 0.149988 0.00659766 0.00363337
threshold=2.5000000000000004 2.5000000000000004 8.5000000000000018 1.5000000000000002 24.500000000000004 1.5000000000000002 24.500000000000004 1633.5000000000002 2.5000000000000004 4446.5000000000009 1536.0000000000002 2.5000000000000004 32.500000000000007 2.5000000000000004 1517.5000000000002 18.500000000000004 1062.0000000000002 1.5000000000000002 1.5000000000000002 38.500000000000007 3224.0000000000005 8132.0000000000009 1.5000000000000002 1.5000000000000002 3647.0000000000005 1596.0000000000002 2.5000000000000004 1.5000000000000002 27.500000000000004 1.5000000000000002 1883.0000000000002 2167.5000000000005 30.500000000000004 1.5000000000000002
decision_type=2 2 2 2 2 2 2 2 2 2 2 2 2 2 2 2 2 2 2 2 2 2 2 2 2 2 2 2 2 2 2 2 2 2
left_child=1 2 -1 11 5 7 10 -5 9 13 19 15 -9 28 -15 16 -4 -18 -7 -3 -6 -22 -12 30 25 -25 27 -17 -2 31 -10 -28 -33 -32
right_child=8 6 3 4 20 18 -8 12 23 -11 22 -13 -14 14 -16 26 17 -19 -20 -21 21 -23 -24 24 -26 -27 29 -29 -30 -31 33 32 -34 -35
leaf_value=0.0098282278510294484 0.012398132587188047 -0.0022958600290875551 -0.017235911130326936 -0.015113367183333112 -0.015171350988941141 0.012457078025223856 -0.0053645757036876827 0.0054831621898891016 0.014302610729440127 -0.0011992620918260337 0.0088785086480857433 -0.0032747580768488676 -0.0069145837405418902 0.012576679661555066 0.0027228471584893649 -0.010539343162105022 -0.013062412879300418 0.00018455206497726179 0.0039162776544719212 0.0058889837623867427 -0.0061925228493139844 -0.014495412933282617 0.015352003629707366 0.014132285260569418 0.016121840119239478 0.0082210719641034671 -0.015740253601235564 -0.015917598313986866 0.017455911507096557 -0.013258483664263925 0.017738798998576003 -0.017542894337062822 -0.018016162188071311 0.017383159930362671
leaf_weight=5.9307970255613318 4.9127404540777224 4.9501213431358391 8.1684827655553836 6.3951176702976253 5.6977045983076122 4.9158290326595324 9.626351445913313 6.1725632399320585 5.3902834504842785 7.8732428997755042 5.1785932481288892 6.4305769652128211 5.4233762472867966 8.6073989570140856 7.8761317431926718 6.4193148612976056 5.4434362500905973 7.2073546648025513 6.1527513116598129 4.9499251991510391 8.6470056474208814 5.8821551352739325 6.6548449993133545 5.3973680436611158 5.1475663632154456 4.9070819467306137 4.9109334349632325 5.1552384048700333 7.3384711444377899 6.3925235569477072 5.8776901811361295 5.1431208699941617 6.8940200954675674 5.6189291030168533
leaf_count=24 20 20 33 26 23 20 39 25 22 32 21 26 22 35 32 26 22 29 25 20 35 24 27 22 21 20 20 21 30 26 24 21 28 23
internal_value=0 -0.00554969 -0.00800598 -0.00895501 -0.0048741 -0.000515293 0.00364439 -0.00557538 0.0114277 0.008448 0.0076347 -0.0121905 -0.000315216 0.0110913 0.00786834 -0.0132192 -0.010114 -0.00551541 0.00770946 0.00179648 -0.0111363 -0.00955396 0.012519 0.0148007 0.0129179 0.0113173 -0.0150708 -0.0129348 0.0154277 -0.01613 0.0165236 -0.0172131 -0.0178139 0.017565
internal_weight=0 148.742 117.382 111.452 49.2865 29.0596 31.3598 17.9911 68.9469 36.608 21.7335 62.165 11.5959 28.7347 16.4835 55.7344 20.8193 12.6508 11.0686 9.90005 20.2269 14.5292 11.8334 32.3389 15.452 10.3044 34.9152 11.5746 12.2512 23.3406 16.8869 16.9481 12.0371 11.4966
internal_count=884 603 476 452 200 118 127 73 281 149 88 252 47 117 67 226 84 51 45 40 82 59 48 132 63 42 142 47 50 95 69 69 49 47
is_linear=0
shrinkage=0.01


Tree=18
num_leaves=33
num_cat=0
split_feature=0 1 9 0 2 15 2 0 0 1 4 0 4 3 0 4 9 11 10 1 0 2 3 9 8 8 2 11 11 9 8 0
split_gain=289.645 57.056 48.2351 18.1651 14.0347 7.51877 8.49894 4.35255 4.17545 2.84351 4.89989 2.68786 1.84466 1.35328 1.00754 0.396051 0.586114 0.139543 0.123768 0.00744876 0.00324494 0.0029529 0.00148474 0.00147007 0.00116452 0.00115255 0.000557784 0.000414601 0.00030459 0.000236223 1.9936e-05 1.83093e-05
threshold=740.50000000000011 2.5000000000000004 1.5000000000000002 288.50000000000006 24.500000000000004 1.5000000000000002 25.500000000000004 752.50000000000011 585.50000000000011 1.5000000000000002 1.0000000180025095e-35 514.00000000000011 1.5000000000000002 2.5000000000000004 596.50000000000011 2.5000000000000004 1.5000000000000002 39.500000000000007 2.5000000000000004 2.5000000000000004 547.50000000000011 24.500000000000004 2.5000000000000004 1.5000000000000002 2.5000000000000004 3.5000000000000004 18.500000000000004 36.500000000000007 30.500000000000004 1.5000000000000002 2.5000000000000004 880.50000000000011
decision_type=2 2 2 2 2 2 2 2 2 2 2 2 2 2 2 2 2 2 2 2 2 2 2 2 2 2 2 2 2 2 2 2
left_child=1 2 3 -1 9 12 8 -2 -7 10 -4 15 -5 -13 -6 24 -17 -18 20 21 -11 23 29 26 28 -25 -9 -26 -3 30 -23 -31
right_child=7 11 4 5 14 6 -8 19 -10 18 -12 13 -14 -15 -16 16 17 -19 -20 -21 -22 22 -24 25 27 -27 -28 -29 -30 31 -32 -33
leaf_value=0.0082983196866635682 -0.0084495770800744035 0.01736281549262933 0.017962619023274371 -0.016039135628596702 0.0044747722300307472 -0.0033069168552067045 -0.012624353141521223 -0.017381333939820279 0.0081042928494180315 0.017563375064896171 0.0061660091154561673 0.0077095430748516502 -0.0088891443019353342 0.014541790737504223 -0.0014204444941708977 0.013007369275820215 0.017351270134503004 0.015271592800537859 0.015872030387396787 -0.01764506363567071 0.017922352031820712 -0.017209412761107771 -0.017412823764754958 -0.017578489871417424 0.017481449081255544 -0.017398840678666993 -0.01725367983945927 0.017366483559495074 0.017265569178716928 -0.017245461714038703 -0.017183105626397927 -0.017271596719883979
leaf_weight=8.9737418442964536 5.9592605233192435 5.3723802268505105 5.9171738326549539 8.6582934409379941 5.2384225726127607 8.9738498032093066 7.168617755174636 8.7942247390747088 4.9893902689218512 4.902719780802725 8.6951305121183378 5.6873574554920179 6.1865247488021842 5.9133542478084564 6.4918918311595917 6.3890467435121563 9.5212472230195981 4.8800585716962805 5.4036131352186212 8.8387834429740888 5.1771711558103561 4.8684939146041906 5.1341003328561774 6.1310661435127232 8.0768908709287626 8.5530808568000793 5.6041996926069251 5.1287256330251703 8.0423995554447156 5.3596383482217789 7.0550715625286102 5.3626455515623093
leaf_count=36 24 22 24 35 21 36 29 36 20 20 35 23 25 24 26 26 39 20 22 36 21 20 21 25 33 35 23 21 33 22 29 22
internal_value=0 0.00792055 0.00276165 -0.00443015 0.0104907 -0.00760504 -0.00377342 -0.0166328 0.000770574 0.0141071 0.010943 0.0155067 -0.0130594 0.0111922 0.00121219 0.0165624 0.0155282 0.0166465 0.0170931 -0.017375 0.0177478 -0.017333 -0.0172593 -0.0174034 0.0173701 -0.0174738 -0.0173316 0.0174368 0.0173045 -0.0172245 -0.0171938 -0.0172585
internal_weight=0 145.788 86.7765 44.9504 41.8261 35.9767 21.1319 71.6606 13.9632 30.0958 14.6123 59.0115 14.8448 11.6007 11.7303 47.4107 20.7904 14.4013 15.4835 65.7013 10.0799 56.8625 27.7799 29.0826 26.6204 14.6841 14.3984 13.2056 13.4148 22.6458 11.9236 10.7223
internal_count=884 591 350 181 169 145 85 293 56 122 59 241 60 47 47 194 85 59 63 269 41 233 114 119 109 60 59 54 55 93 49 44
is_linear=0
shrinkage=0.01


Tree=19
num_leaves=34
num_cat=0
split_feature=1 3 2 9 2 1 2 5 7 5 5 11 8 5 4 11 2 5 10 11 13 8 5 16 14 5 5 11 5 10 10 4 16
split_gain=130.974 32.5725 19.2962 14.2093 13.0068 11.6875 10.7967 8.7737 6.75081 9.02407 6.0158 4.32557 3.91598 3.90115 3.3444 6.16623 2.32303 7.86989 1.91587 1.62527 1.56988 1.40599 1.38497 1.20464 1.03099 0.782643 0.875313 0.732825 0.381774 0.315215 0.242434 0.00532595 0.00362765
threshold=2.5000000000000004 2.5000000000000004 8.5000000000000018 1.5000000000000002 24.500000000000004 1.5000000000000002 24.500000000000004 1633.5000000000002 2.5000000000000004 4446.5000000000009 1536.0000000000002 32.500000000000007 2.5000000000000004 1517.5000000000002 2.5000000000000004 30.500000000000004 15.500000000000002 1261.0000000000002 1.5000000000000002 38.500000000000007 1.5000000000000002 2.5000000000000004 4940.5000000000009 1.5000000000000002 1.5000000000000002 3647.0000000000005 1596.0000000000002 27.500000000000004 1883.0000000000002 2.5000000000000004 2.5000000000000004 1.0000000180025095e-35 1.5000000000000002
decision_type=2 2 2 2 2 2 2 2 2 2 2 2 2 2 2 2 2 2 2 2 2 2 2 2 2 2 2 2 2 2 2 2 2
left_child=1 2 -1 14 5 7 10 -5 9 12 19 -9 27 -14 16 -16 17 -4 -7 -3 -6 29 -22 -12 28 26 -26 -2 -10 -18 -23 -32 -30
right_child=8 6 3 4 20 18 -8 11 24 -11 23 -13 13 -15 15 -17 21 -19 -20 -21 22 30 -24 -25 25 -27 -28 -29 32 -31 31 -33 -34
leaf_value=0.0097128302602666906 0.01220672254814934 -0.0022910441555038723 -0.016995910324735474 -0.014912200174361805 -0.015890908736921526 0.012252448620636956 -0.0052174471972035045 0.0054277464236271392 0.014096229050071145 -0.0011917608907674596 0.008716777935365707 -0.0068231710526777522 0.012383793897110784 0.0026311830719394926 -0.0021459750635411906 -0.014457526720677917 -0.014124556199209168 -0.0018882750407923489 0.003866855665099 0.0058177198861931057 -0.006182247362631778 -0.015275777358867999 -0.01221601305984293 0.015157175296589174 0.013906391689586508 0.015905380049457206 0.0080602846891719079 0.017207401370315525 0.017502790513654755 -0.010833345482355294 -0.017748295516109295 -0.017305531583815845 0.017146533870127684
leaf_weight=5.9205075204372397 4.8959024250507372 4.9441495388746315 7.4133442938327772 6.372222691774371 4.8998761624097851 4.8983548879623431 9.6081133335828763 6.162835627794264 5.3685091882944134 7.8569339513778678 5.1656378060579282 5.4139304906129837 8.5791334211826342 7.8587548881769171 8.3994751274585742 7.8890236169099799 4.9234223514795321 6.4463901966810226 6.1394765079021454 4.943104475736618 7.165035441517829 8.7984559237957018 8.1102450639009458 6.6340697705745697 5.3750529885292035 5.1256260573863974 4.8921383619308472 7.3000399768352509 5.8490976691246015 7.1159283816814423 4.9018049389123899 6.094663068652153 5.5897597521543503
leaf_count=24 20 20 30 26 20 20 39 25 22 32 21 22 35 32 34 32 20 26 25 20 29 36 33 27 22 21 20 30 24 29 20 25 23
internal_value=0 -0.00545536 -0.00787801 -0.00881505 -0.00480027 -0.000509073 0.00360702 -0.00548854 0.0112465 0.00830166 0.00751658 -0.000301454 0.0109066 0.00772119 -0.0119994 -0.00810884 -0.0133863 -0.0099691 0.0075882 0.00176291 -0.0109657 -0.014874 -0.00938581 0.0123377 0.0145838 0.012714 0.0111208 0.0151999 0.0162962 -0.0121793 -0.016513 -0.0175029 0.0173287
internal_weight=0 148.36 117.065 111.144 49.162 28.9868 31.2951 17.949 68.6909 36.4908 21.687 11.5768 28.6338 16.4379 61.9825 16.2885 45.694 13.8597 11.0378 9.88725 20.1752 31.8343 15.2753 11.7997 32.2002 15.3928 10.2672 12.1959 16.8074 12.0394 19.7949 10.9965 11.4389
internal_count=884 603 476 452 200 118 127 73 281 149 88 47 117 67 252 66 186 56 45 40 82 130 62 48 132 63 42 50 69 49 81 45 47
is_linear=0
shrinkage=0.01


Tree=20
num_leaves=33
num_cat=0
split_feature=0 1 9 3 2 2 5 7 0 0 1 0 0 7 4 5 5 5 1 1 7 2 9 2 1 5 2 4 14 7 14 9
split_gain=281.418 57.5831 36.2538 17.0951 12.7948 7.31113 8.58901 5.56497 4.82086 4.73039 5.07186 2.08144 1.59843 1.43396 1.13806 0.22134 0.376667 0.134148 0.012736 0.00709815 0.00546929 0.00529534 0.00312239 0.00310084 0.00278872 0.00204457 0.000858007 0.000611661 0.000227099 0.000226199 0.000197244 9.39017e-05
threshold=740.50000000000011 2.5000000000000004 1.5000000000000002 2.5000000000000004 31.500000000000004 25.500000000000004 1839.0000000000002 1.5000000000000002 752.50000000000011 375.50000000000006 1.5000000000000002 514.00000000000011 568.50000000000011 2.5000000000000004 1.5000000000000002 1883.0000000000002 1517.5000000000002 930.50000000000011 2.5000000000000004 1.5000000000000002 2.5000000000000004 27.500000000000004 1.5000000000000002 23.500000000000004 1.5000000000000002 2302.5000000000005 18.500000000000004 1.5000000000000002 1.5000000000000002 1.5000000000000002 1.5000000000000002 1.5000000000000002
decision_type=2 2 2 2 2 2 2 2 2 2 2 2 2 2 2 2 2 2 2 2 2 2 2 2 2 2 2 2 2 2 2 2
left_child=1 2 3 5 9 6 7 -1 -2 19 -11 15 -7 -13 -12 16 17 -3 21 -4 23 22 26 -17 25 -24 -10 -19 29 -23 -22 -31
right_child=8 11 4 -5 -6 12 -8 -9 18 10 14 13 -14 -15 -16 20 -18 27 -20 -21 30 28 24 -25 -26 -27 -28 -29 -30 31 -32 -33
leaf_value=-0.015466695735958713 -0.0074203109508349831 0.015184713077968402 0.017830189103867692 0.009699432026960466 -0.00158632953050201 -0.0088682438943646479 0.0047345358938345903 -0.0028555333699465234 -0.017200431607805714 0.0041695239270075667 0.017753214339535112 0.0084201419710977082 -0.016219766836958676 0.015543638095470063 0.011238846865371632 0.017172099877899458 0.01336865842037599 0.017111664462010324 -0.017571884931026693 0.017326271037745943 0.017001675050544392 -0.016987392529156702 -0.017088652807770232 0.017482299258969977 -0.017506845344080629 -0.017374975508670534 -0.01704195054628772 0.017264981940428664 -0.01710091097377597 -0.017024582714089173 0.017078675705857332 -0.01707984813132957
leaf_weight=5.9644371122121838 5.4560731947422019 4.8707103878259685 6.1511602103710192 7.7031352669000617 8.2384036034345609 5.192120745778082 8.2278672158718091 8.4652600884437543 8.2728259265422839 9.4522964209318161 4.9117029160261154 5.9568476825952512 6.8722893446683884 5.3763533532619476 5.9068636298179626 6.8069691210985184 4.8919164836406699 4.8571276515722257 8.3359898477792722 5.1236074268817902 8.2352274060249311 7.0218086093664231 4.8538932204246539 6.1197012066841125 6.122344270348548 5.1295634061098099 5.8190219700336447 5.6047807186841965 6.555204600095748 5.0892727822065336 5.5813625752925882 7.7657521665096283
leaf_count=24 22 20 25 31 33 21 33 34 34 38 20 24 28 22 24 28 20 20 34 21 34 29 20 25 25 21 24 23 27 21 23 32
internal_value=0 0.00804418 0.00265315 -0.00377757 0.00951077 -0.00676747 -0.00341907 -0.00806829 -0.0164487 0.0124089 0.00952088 0.015646 -0.0130559 0.0117995 0.0141964 0.0165741 0.0157847 0.0165556 -0.0172069 0.0176012 0.0171711 -0.0171532 -0.0172437 0.017319 -0.0173388 -0.0172358 -0.017135 0.0171938 -0.0170499 -0.017033 0.0170328 -0.017058
internal_weight=0 140.51 82.2091 42.4251 39.784 34.722 22.6576 14.4297 70.4217 31.5456 20.2709 58.301 12.0644 11.3332 10.8186 46.9678 20.2245 15.3326 64.9657 11.2748 26.7433 56.6297 30.1976 12.9267 16.1058 9.98346 14.0918 10.4619 26.432 19.8768 13.8166 12.855
internal_count=860 571 332 171 161 140 91 58 289 128 82 239 49 46 44 193 83 63 267 46 110 233 124 53 66 41 58 43 109 82 57 53
is_linear=0
shrinkage=0.01


Tree=21
num_leaves=32
num_cat=0
split_feature=0 1 2 6 0 3 8 0 0 0 15 0 0 7 4 2 4 10 0 1 2 7 8 1 2 0 11 14 7 14 0
split_gain=276.473 56.6527 27.1712 13.7768 13.4679 12.242 8.20427 13.9135 7.90271 4.7643 4.08159 3.55145 2.0606 1.41553 1.40802 1.08646 0.211702 0.264809 0.137011 0.0120911 0.00503006 0.00265081 0.00222159 0.00190942 0.00109886 0.00101542 0.000729546 0.000215823 0.000214947 0.000125356 6.20029e-05
threshold=740.50000000000011 2.5000000000000004 24.500000000000004 2.5000000000000004 461.50000000000006 2.5000000000000004 2.5000000000000004 612.50000000000011 401.50000000000006 752.50000000000011 1.5000000000000002 658.50000000000011 514.00000000000011 2.5000000000000004 1.5000000000000002 15.500000000000002 2.5000000000000004 1.5000000000000002 341.50000000000006 2.5000000000000004 27.500000000000004 2.5000000000000004 2.5000000000000004 1.5000000000000002 20.500000000000004 872.00000000000011 34.500000000000007 1.5000000000000002 1.5000000000000002 1.5000000000000002 852.00000000000011
decision_type=2 2 2 2 2 2 2 2 2 2 2 2 2 2 2 2 2 2 2 2 2 2 2 2 2 2 2 2 2 2 2
left_child=1 2 3 5 -4 6 15 8 -8 -2 -6 -12 16 -14 -7 -1 21 -18 26 20 23 22 -3 25 -25 -11 -19 28 -22 -23 -30
right_child=9 12 4 -5 10 14 7 -9 -10 19 11 -13 13 -15 -16 -17 17 18 -20 -21 27 29 -24 24 -26 -27 -28 -29 30 -31 -32
leaf_value=0.011839953189474464 -0.0073509440845881359 0.017040206484759492 0.0082916225259233086 0.018111536965358183 -0.01650868868519945 0.016142295802333902 -0.00048922409520841029 0.0091287001463044009 -0.014200791837312687 -0.016984639866443808 -0.002666040869425255 -0.01302596525096102 0.0083418706697722649 0.015425054747172708 0.0095611282200018053 0.0053714816058782 0.013952270029711404 0.01716747780448415 0.015041732280218472 -0.017440035413872665 -0.016869701496446121 0.016915065578084816 0.017288242128044442 -0.017305777454589562 -0.017107481074336475 -0.017132135739095399 0.016998256762441929 -0.01698053178074533 -0.016917009167007807 0.016982259616190886 -0.016961006510613105
leaf_weight=5.4622758924961072 5.4525013864040366 7.9988236129283923 5.2299753129482296 8.6157451421022397 6.1525066047906902 6.1368587017059308 8.928685694932943 7.9111073315143576 7.9425957798957816 9.441117078065874 8.446885943412779 5.4400322437286368 5.9526341408491117 5.3635723143815994 6.9128877520561218 4.9495271742343903 6.0857098251581201 5.1052544862031919 4.8543584495782861 8.3151252567768079 7.0001961439848008 5.7999180853366834 6.58291095495224 6.5849059671163577 4.8549233675003052 9.2313552498817426 5.0854844152927399 6.5357564836740485 6.5254839062690717 5.3258840143680573 6.2908654808998108
leaf_count=22 22 33 21 35 25 25 36 32 32 39 34 22 24 22 28 20 25 21 20 34 29 24 27 27 20 38 21 27 27 22 26
internal_value=0 0.0079767 0.00262921 0.00646364 -0.00599881 0.00438348 0.00131608 -0.00181343 -0.0069443 -0.0163284 -0.00972838 -0.00672442 0.0155287 0.0116991 0.012656 0.00876499 0.016454 0.0157124 0.0164244 -0.017084 -0.0170316 0.0170635 0.0171522 -0.0171199 -0.0172216 -0.0170576 0.017083 -0.0169307 -0.0169143 0.0169472 -0.0169386
internal_weight=0 140.284 82.1291 56.8597 25.2694 48.2439 35.1942 24.7824 16.8713 70.2322 20.0394 13.8869 58.1546 11.3162 13.0497 10.4118 46.8383 21.1308 15.0451 64.7797 56.4646 25.7075 14.5817 30.1123 11.4398 18.6725 10.1907 26.3523 19.8165 11.1258 12.8163
internal_count=860 571 332 230 102 195 142 100 68 289 81 56 239 46 53 42 193 87 62 267 233 106 60 124 47 77 42 109 82 46 53
is_linear=0
shrinkage=0.01


Tree=22
num_leaves=33
num_cat=0
split_feature=0 1 9 8 2 0 5 11 0 0 1 11 0 14 4 5 5 2 1 1 7 2 8 9 1 5 2 14 9 14 2 5
split_gain=271.633 55.7533 35.323 20.6868 12.3725 9.75203 6.86316 6.60572 4.71008 4.63126 4.97154 4.16826 2.04071 1.41725 1.11672 0.219266 0.375342 0.134026 0.0114828 0.00712964 0.00500996 0.00478067 0.0033366 0.00285014 0.00252782 0.00186837 0.000779841 0.000205182 0.000204615 0.000176564 0.000133093 2.17072e-05
threshold=740.50000000000011 2.5000000000000004 1.5000000000000002 2.5000000000000004 31.500000000000004 418.50000000000006 4008.0000000000005 35.500000000000007 752.50000000000011 375.50000000000006 1.5000000000000002 27.500000000000004 514.00000000000011 1.5000000000000002 1.5000000000000002 1883.0000000000002 1517.5000000000002 11.500000000000002 2.5000000000000004 1.5000000000000002 2.5000000000000004 27.500000000000004 2.5000000000000004 1.5000000000000002 1.5000000000000002 2443.5000000000005 18.500000000000004 1.5000000000000002 1.5000000000000002 1.5000000000000002 14.500000000000002 8850.5000000000018
decision_type=2 2 2 2 2 2 2 2 2 2 2 2 2 2 2 2 2 2 2 2 2 2 2 2 2 2 2 2 2 2 2 2
left_child=1 2 3 5 9 -1 7 11 -2 19 -11 -5 15 -14 -12 16 17 -3 21 -4 22 23 -17 26 25 -25 -10 28 -23 -22 -19 -30
right_child=8 12 4 6 -6 -7 -8 -9 18 10 14 -13 13 -15 -16 20 -18 30 -20 -21 29 27 -24 24 -26 -27 -28 -29 31 -31 -32 -33
leaf_value=0.01460514594409845 -0.0072823780539098132 0.014994377261869259 0.01762000450258688 -0.0035598056115645586 -0.0015278573779064851 -0.0015407041982476079 -0.017622347175344128 0.0039939081919942608 -0.016957460912212875 0.0040840075878622525 0.017551207501539035 -0.014010800146386402 0.015644259039075833 0.0084984904557560241 0.011088055180523495 0.016915628429944443 0.013131738805761566 0.017017901186858843 -0.017311445321740605 0.017113885036679894 0.016770141261747334 -0.016763643313305137 0.017237878150848075 -0.016857423573375451 -0.017250577566495659 -0.017131879962200749 -0.016805912064353581 -0.016863019578541541 -0.016841241543796796 0.016843217025692504 0.016945454317144445 -0.016812512687244308
leaf_weight=6.7189515531063071 5.4488188028335562 5.0803453475236919 6.1286027431488055 6.9726589173078599 8.2363934516906721 8.4399295151233655 6.8473269045352927 4.9552765786647788 8.2243293374776858 9.4451511204242706 4.8933271616697311 8.4304025620222074 4.9044636487960798 6.3940889090299606 5.8926074802875519 6.5231106877326965 4.8696320950984946 5.3303072303533536 8.2932306975126249 5.0990448743104935 8.1842787414789182 9.1454022377729451 6.3319616615772247 5.0665113329887408 6.0903128683567038 4.8592783063650131 5.7830555289983741 6.5155895948410025 5.7886430621147156 5.5476073324680337 4.8368929773569107 4.8200722485780716
leaf_count=27 22 21 25 28 33 34 28 20 34 38 20 34 20 26 24 27 20 22 34 21 34 38 26 21 25 20 24 27 24 23 20 20
internal_value=0 0.00790951 0.00260514 -0.00374571 0.00938306 0.00561571 -0.00896185 -0.00604897 -0.0162108 0.0122397 0.00938138 -0.00927984 0.0154139 0.0116003 0.0140202 0.0163365 0.0155488 0.0163207 -0.0169641 0.0173901 0.0169325 -0.0169129 0.0170744 -0.0169991 -0.0170902 -0.0169918 -0.0168949 -0.0168144 -0.0167983 0.0167997 0.0169834 -0.0168282
internal_weight=0 140.062 82.0597 42.3645 39.6951 15.1589 27.2057 20.3583 70.0352 31.4587 20.2311 15.4031 58.0027 11.2986 10.7859 46.7041 20.1172 15.2475 64.5864 11.2276 26.587 56.2932 12.8551 30.0235 16.0161 9.92579 14.0074 26.2697 19.7541 13.7319 10.1672 10.6087
internal_count=860 571 332 171 161 61 110 82 289 128 82 62 239 46 44 193 83 63 267 46 110 233 53 124 66 41 58 109 82 57 42 44
is_linear=0
shrinkage=0.01


Tree=23
num_leaves=31
num_cat=0
split_feature=1 2 3 3 9 11 1 9 5 5 16 11 7 5 4 11 5 5 10 2 5 11 4 1 16 11 5 10 5 5
split_gain=129.341 32.6154 24.3791 12.3705 10.4048 6.10687 4.98645 4.86392 5.17315 3.8423 3.81808 3.81011 3.70274 7.23852 3.07075 2.69229 2.6051 3.09336 2.08681 2.08458 1.83754 1.7289 1.28988 1.22309 1.01412 0.815869 0.369343 0.357473 0.163156 0.00494944
threshold=2.5000000000000004 24.500000000000004 2.5000000000000004 1.5000000000000002 1.5000000000000002 41.500000000000007 1.5000000000000002 1.5000000000000002 4803.0000000000009 1392.0000000000002 1.5000000000000002 30.500000000000004 2.5000000000000004 4593.5000000000009 1.5000000000000002 27.500000000000004 2608.5000000000005 1529.5000000000002 1.5000000000000002 16.500000000000004 1406.0000000000002 29.500000000000004 1.0000000180025095e-35 1.5000000000000002 1.5000000000000002 30.500000000000004 3647.0000000000005 2.5000000000000004 6244.0000000000009 4247.0000000000009
decision_type=2 2 2 2 2 2 2 2 2 2 2 2 2 2 2 2 2 2 2 2 2 2 2 2 2 2 2 2 2 2
left_child=1 2 3 20 5 9 11 23 -9 15 14 -6 13 16 -4 -5 17 21 -8 -11 -1 -2 -14 28 -10 -25 27 -24 29 -3
right_child=12 7 10 4 6 -7 18 8 24 19 -12 -13 22 -15 -16 -17 -18 -19 -20 -21 -22 -23 26 25 -26 -27 -28 -29 -30 -31
leaf_value=-0.017838619174029707 0.0089813968323441667 -0.016989210575151289 0.01041749604127854 -0.008089647038515892 0.0038954329620412903 0.0029587710333661204 0.011976820943908971 -0.0024331042275430141 -0.013916191263498457 -0.00096757966307952823 0.013363716768286156 -0.006278953455807066 0.010326663876138798 0.00046824297328311421 -1.9547760086040424e-05 -0.017659182291463058 0.016116098635564756 0.0050619493716113281 0.0033413693053017486 -0.0092840742888063016 -0.010186203796098936 0.016945968705470511 0.015841495937529086 -0.0098004081033742606 -0.0091241523349965513 -0.014825980052967036 0.01706206032757002 0.012922763918682172 -0.014978979901859178 -0.017435638771541223
leaf_weight=5.3820574730634672 5.3467845022678429 4.8352619558572751 4.8877478539943695 5.8962430208921486 6.6156674176454553 5.4312053173780432 4.863888218998909 9.131093695759775 9.5277491062879562 6.4781738966703397 8.0685357451438904 8.2962226420640928 7.7312607467174557 7.5677452087402335 6.6601415574550629 5.8636388331651688 8.4846422374248487 8.761490583419798 6.5898804217576981 5.6361931264400482 7.5254955738782883 5.5593151897192001 7.7364943772554442 6.5638688951730728 8.2317042797803879 6.3607182651758194 6.5072921812534323 9.1697873026132584 4.8353758752346048 5.1058499068021774
leaf_count=22 22 20 20 24 27 22 20 37 39 26 33 34 32 31 27 24 35 36 27 23 31 23 32 27 34 26 27 38 20 21
internal_value=0 -0.00550483 -0.00174465 -0.00455657 -0.00251151 -0.00661211 0.00204631 -0.0115796 -0.00855 -0.00878941 0.00808575 -0.00176508 0.0113481 0.0091507 0.00439802 -0.0128611 0.0114847 0.00948666 0.00700845 -0.00483682 -0.013377 0.0130413 0.0138682 -0.0145205 -0.011695 -0.0122737 0.0150376 0.0142584 -0.0164857 -0.0172185
internal_weight=0 142.787 88.1951 68.5787 55.6711 29.3055 26.3657 54.5916 26.8905 23.8742 19.6164 14.9119 66.8648 35.72 11.5479 11.7599 28.1522 19.6676 11.4538 12.1144 12.9076 10.9061 31.1448 27.7011 17.7595 12.9246 23.4136 16.9063 14.7765 9.94111
internal_count=860 584 360 280 227 119 108 224 110 97 80 61 276 147 47 48 116 81 47 49 53 45 129 114 73 53 97 70 61 41
is_linear=0
shrinkage=0.01


Tree=24
num_leaves=34
num_cat=0
split_feature=0 1 2 6 0 3 8 0 0 0 15 5 5 0 14 4 5 5 5 1 2 7 1 5 8 3 4 5 5 16 14 4 0
split_gain=265.187 53.7251 25.8069 13.3204 13.0652 11.673 7.91826 13.4365 7.71948 4.63472 3.99258 3.80916 2.38002 2.02305 1.39606 1.35247 0.219354 0.36733 0.132798 0.0172787 0.00691085 0.0057634 0.0029862 0.00319944 0.00287476 0.00207311 0.000510706 0.000312406 0.00029119 0.000157654 0.000149621 6.37387e-05 3.16502e-06
threshold=740.50000000000011 2.5000000000000004 24.500000000000004 2.5000000000000004 461.50000000000006 2.5000000000000004 2.5000000000000004 612.50000000000011 401.50000000000006 752.50000000000011 1.5000000000000002 4940.5000000000009 2489.0000000000005 514.00000000000011 1.5000000000000002 1.5000000000000002 1883.0000000000002 1517.5000000000002 930.50000000000011 2.5000000000000004 26.500000000000004 2.5000000000000004 1.5000000000000002 1982.0000000000002 2.5000000000000004 2.5000000000000004 1.5000000000000002 1171.5000000000002 1763.0000000000002 1.5000000000000002 1.5000000000000002 1.5000000000000002 889.50000000000011
decision_type=2 2 2 2 2 2 2 2 2 2 2 2 2 2 2 2 2 2 2 2 2 2 2 2 2 2 2 2 2 2 2 2 2
left_child=1 2 3 5 -4 6 12 8 -8 -2 -6 -12 -1 16 -15 -7 17 18 -3 20 22 24 23 27 -18 29 -20 -11 -24 31 -23 -22 -31
right_child=9 13 4 -5 10 15 7 -9 -10 19 11 -13 -14 14 -16 -17 21 -19 26 -21 25 30 28 -25 -26 -27 -28 -29 -30 32 -32 -33 -34
leaf_value=0.0036255762535062552 -0.0071926240600757516 0.014741890359359463 0.00827443695558777 0.017841611588796533 -0.01620996207399554 0.015839943167558216 -0.00042072547346942566 0.0090059561443950574 -0.01398428280797114 -0.016597024526969394 0.00024845951300715762 -0.010578700388246322 0.013206088902803313 0.015434877889678983 0.0083309616477412543 0.0093763056265108533 0.016739058156197133 0.012951354594173098 0.016676150666523705 -0.017229827617790225 -0.016537206081405163 0.016564075935622154 -0.017039945093755861 -0.016916600983397475 0.017038901923608542 -0.016809231014895846 0.016817045299365216 -0.016708399623047942 -0.016932892963661489 -0.016609866457940672 0.016631552816540239 -0.016582253506286202 -0.016621359368781861
leaf_weight=4.9519069492816907 5.442483350634574 4.8197249770164516 5.2268501818180111 8.576475650072096 6.121380269527438 6.102296903729437 8.9150788933038765 7.8946944922208777 7.9270914644002906 5.0286764204502123 5.2035405486822119 8.652442663908003 5.4433398693799973 4.8855087608098966 6.3775937408208847 6.8949212282896042 6.4905452132225037 4.8507596999406806 4.8008481413125974 8.2778943479061109 5.736652553081516 8.1337832659482938 5.0888761729002017 8.4575231969356519 6.3022413551807404 5.0607974529266349 5.5430352985858917 5.0453764200210571 5.074711412191391 4.7914796322584152 5.5136780887842187 6.9417540580034256 4.7931824624538422
leaf_count=20 22 20 21 35 25 25 36 32 32 21 21 35 22 20 26 28 27 20 20 34 24 34 21 35 26 21 23 21 21 20 23 29 20
internal_value=0 0.00782504 0.00261803 0.00636019 -0.00580129 0.00431424 0.00131881 -0.00175876 -0.00680467 -0.0160534 -0.00948404 -0.00651262 0.00864229 0.0152146 0.0114124 0.012411 0.0161364 0.0153466 0.0161129 -0.0168034 -0.0167404 0.0167343 -0.0168487 -0.0167732 0.0168868 -0.0166265 0.0167517 -0.0166528 -0.0169865 -0.016585 0.0165913 -0.0165619 -0.0166156
internal_weight=0 139.628 81.91 56.7058 25.2042 48.1293 35.1321 24.7369 16.8422 69.7394 19.9774 13.856 10.3952 57.7177 11.2631 12.9972 46.4546 20.0144 15.1636 64.2969 56.019 26.4402 28.6952 18.5316 12.7928 27.3239 10.3439 10.0741 10.1636 22.2631 13.6475 12.6784 9.58466
internal_count=860 571 332 230 102 195 142 100 68 289 81 56 42 239 46 53 193 83 63 267 233 110 119 77 53 114 43 42 42 93 57 53 40
is_linear=0
shrinkage=0.01


Tree=25
num_leaves=35
num_cat=0
split_feature=0 1 9 0 3 2 0 2 5 5 0 1 0 10 15 14 10 7 5 1 1 2 8 9 5 5 8 5 9 5 2 14 5 5
split_gain=279.926 51.8314 50.8061 15.597 9.78515 8.78927 6.14075 4.15191 6.47449 3.40897 2.62805 2.58806 2.28307 2.95605 0.974381 0.461618 0.139481 0.0499445 0.087414 0.021971 0.0207393 0.00624094 0.00471654 0.0039176 0.00222627 0.00210486 0.00121156 0.00118818 0.00092276 0.000617195 0.000506782 0.0003561 0.000194678 2.55618e-05
threshold=740.50000000000011 2.5000000000000004 1.5000000000000002 288.50000000000006 2.5000000000000004 24.500000000000004 752.50000000000011 27.500000000000004 1839.0000000000002 5313.0000000000009 539.50000000000011 1.5000000000000002 514.00000000000011 2.5000000000000004 1.5000000000000002 1.5000000000000002 3.5000000000000004 2.5000000000000004 1709.0000000000002 1.5000000000000002 2.5000000000000004 24.500000000000004 2.5000000000000004 1.5000000000000002 1529.5000000000002 2533.0000000000005 3.5000000000000004 2114.5000000000005 1.5000000000000002 6269.5000000000009 10.500000000000002 1.5000000000000002 5049.0000000000009 9044.5000000000018
decision_type=2 2 2 2 2 2 2 2 2 2 2 2 2 2 2 2 2 2 2 2 2 2 2 2 2 2 2 2 2 2 2 2 2 2
left_child=1 2 3 -1 7 10 -2 8 14 -7 15 -12 16 -14 -5 19 17 22 -19 -4 21 23 30 27 -24 -22 -25 -8 32 -30 -3 -20 -23 -31
right_child=6 12 5 4 -6 9 20 -9 -10 -11 11 -13 13 -15 -16 -17 -18 18 31 -21 25 28 24 26 -26 -27 -28 -29 29 33 -32 -33 -34 -35
leaf_value=0.0070697124248058577 -0.0058699314661804607 0.016523120174462069 0.017809353672872681 -0.013970322737254751 0.005406554436296767 -0.00048010123411979292 -0.016529769336875839 -0.015117216186431331 -0.00022860344791569368 0.010115255210529313 0.0047023756495934675 0.014336410523667189 0.015846440991593415 0.0054189806424130554 -0.008367517425319923 0.014084041077908204 0.014671784941692394 0.015105290920469838 0.016474545275153012 0.016961073146343989 -0.017246872006870483 -0.016413500660954261 0.016735782321758833 -0.016959212319231729 0.017007694196432287 -0.016959159892815025 -0.016769044879077381 -0.016715264886463407 -0.01665723644628719 -0.016538854989059305 0.016655291097066611 0.016578759140848002 -0.016489792149887182 -0.016506145457628251
leaf_weight=9.6991920471191388 5.6865884810686103 5.2557581216096878 5.4074378609657341 7.1525854319334083 5.2091710269451132 7.2363676577806455 8.1244344562292117 9.0160456448793393 8.4428966641426069 5.232266440987587 4.9671189785003644 6.3572063148021698 6.1112117767333967 4.8972974568605423 5.4837104976177216 6.7664177417755118 5.0359841287136069 6.475431993603709 8.1099742501974088 7.0134513676166534 5.3591669946908933 5.9512840658426285 5.7706699818372726 5.5636577457189533 6.2965269088745117 4.8384793549776077 8.4210603535175323 6.005812093615531 5.2782113701105127 4.7807546406984311 6.4750195741653442 5.5041804313659659 7.6368484944105148 4.7758205384016037
leaf_count=39 23 22 22 29 21 29 34 37 34 21 20 26 25 20 22 28 21 27 34 29 22 25 24 23 26 20 35 25 22 20 27 23 32 20
internal_value=0 0.00814986 0.00326427 -0.00416194 -0.00724762 0.0110401 -0.0158453 -0.00943792 -0.00700876 0.00396607 0.0139309 0.0101107 0.0153222 0.0112076 -0.0115389 0.0161856 0.016248 0.0164289 0.0160617 0.0173304 -0.0166953 -0.0166204 0.0167389 -0.016726 0.0168777 -0.0171104 -0.0168447 -0.0166086 -0.0165159 -0.0165704 0.0165961 0.0165167 -0.0164564 -0.0165225
internal_weight=0 147.916 87.9839 45.0036 35.3044 42.9803 72.4221 30.0952 21.0792 12.4686 30.5116 11.3243 59.9321 11.0085 12.6363 19.1873 48.9235 43.8876 20.0896 12.4209 66.7355 56.5379 23.798 28.115 12.0672 10.1976 13.9847 14.1302 28.4229 14.8348 11.7308 13.6142 13.5881 9.55658
internal_count=907 606 357 182 143 175 301 122 85 50 125 46 249 45 51 79 204 183 84 51 278 236 99 117 50 42 58 59 119 62 49 57 57 40
is_linear=0
shrinkage=0.01


Tree=26
num_leaves=34
num_cat=0
split_feature=1 3 2 2 9 1 2 8 15 2 5 4 6 5 5 4 9 4 2 7 6 10 5 11 11 5 11 3 2 5 5 8 5
split_gain=113.652 50.0982 18.4982 13.7821 12.8935 8.70156 7.33161 5.74749 5.30306 4.66694 4.08688 3.04202 2.86214 2.77883 3.81114 2.6525 2.54039 1.5692 2.17498 2.14906 1.74472 1.24269 1.3111 0.826165 1.39646 0.813149 1.61357 0.646419 0.309628 0.227646 0.178341 0.0671138 0.0270697
threshold=2.5000000000000004 2.5000000000000004 8.5000000000000018 30.500000000000004 1.5000000000000002 1.5000000000000002 24.500000000000004 2.5000000000000004 2.5000000000000004 31.500000000000004 1216.5000000000002 2.5000000000000004 1.5000000000000002 1673.0000000000002 2993.5000000000005 1.5000000000000002 1.5000000000000002 1.0000000180025095e-35 11.500000000000002 1.5000000000000002 1.5000000000000002 1.5000000000000002 1839.0000000000002 42.500000000000007 36.500000000000007 4940.5000000000009 32.500000000000007 2.5000000000000004 17.500000000000004 9956.0000000000018 1583.5000000000002 3.5000000000000004 6514.0000000000009
decision_type=2 2 2 2 2 2 2 2 2 2 2 2 2 2 2 2 2 2 2 2 2 2 2 2 2 2 2 2 2 2 2 2 2
left_child=1 2 -1 4 7 13 10 15 25 17 -3 21 -7 -6 -15 -4 -12 18 -2 -19 -20 -9 -23 24 27 26 -5 -21 -18 32 -25 -29 -27
right_child=9 6 3 8 5 12 -8 11 -10 -11 16 -13 -14 14 -16 -17 28 19 20 23 -22 22 -24 30 -26 29 -28 31 -30 -31 -32 -33 -34
leaf_value=0.011291043895690316 0.014037742712717185 0.002746047949482308 -0.0086099767573475545 -0.0097690514990297697 -0.010748329147413695 0.0011985796406230377 -0.00095043386321693 -0.017862253925578938 -0.0041681102355755366 0.0041208936040201035 0.0070022947709701445 -0.0070531248776356369 0.010846204691835202 0.0031115309832250851 -0.0077854990093284638 0.00010364762689292268 0.016993425874375911 0.0078951686798688029 0.0035561149373706 0.012105092726091489 0.010988708640364876 -0.015124491003001166 -0.0089694167667206236 0.014612662272251574 0.0080760882527497798 -0.017430693966311323 -0.017192216032333639 0.016659013501964987 0.013496699770375865 -0.014581573402690737 0.017175058623635685 0.014986832277913293 -0.016556301204046834
leaf_weight=4.8967229276895514 6.4666975736618069 6.3807355463504853 7.3419336378574354 6.534723252058031 6.7774293124675777 7.7831481844186765 9.5399799048900586 6.6075375527143505 5.1030815094709387 9.408099949359892 5.9184033721685418 8.0859909057617205 5.0834397375583649 5.8712841868400556 7.0794657766819 6.6647023260593414 5.0751832127571106 7.4751550406217566 6.9827526062726957 9.1290774941444432 5.7662661373615265 8.5082179903984052 5.8335752040147772 4.7996693253517133 5.0307812243700019 8.2527787685394305 5.305853083729744 4.7938987463712692 5.0540905892848969 5.008031725883483 6.2571845054626465 4.8068745285272598 6.200759455561637
leaf_count=20 27 26 30 27 28 32 39 27 21 39 24 33 21 24 29 27 21 31 29 38 24 35 24 20 21 34 22 20 21 21 26 20 26
internal_value=0 -0.00470117 -0.00773391 -0.00856538 -0.00613216 -0.00138764 0.00639242 -0.00972508 -0.0136207 0.0106802 0.00951572 -0.0122631 0.00501024 -0.0055603 -0.00284528 -0.00446382 0.0122074 0.0116835 0.00931389 0.0127601 0.00691781 -0.014274 -0.0126209 0.0138046 0.0127538 -0.0151618 -0.0130954 0.0140102 0.0152487 -0.0164189 0.0160627 0.0158218 -0.0170556
internal_weight=0 148.907 116.939 112.042 75.6367 32.5948 31.9684 43.042 36.4052 70.9165 22.4284 29.0353 12.8666 19.7282 12.9507 14.0066 16.0477 61.5084 19.2157 42.2926 12.749 20.9493 14.3418 34.8175 23.7606 31.3021 11.8406 18.7299 10.1293 19.4616 11.0569 9.60077 14.4535
internal_count=907 612 481 461 310 134 131 176 151 295 92 119 53 81 53 57 66 256 80 176 53 86 59 145 99 130 49 78 42 81 46 40 60
is_linear=0
shrinkage=0.01


Tree=27
num_leaves=34
num_cat=0
split_feature=0 9 1 0 2 15 0 16 2 2 0 10 10 0 5 1 11 1 1 4 2 9 1 5 2 9 5 5 5 5 5 5 2
split_gain=273.446 50.2996 44.8477 15.2555 9.51175 8.99999 8.53837 7.34988 8.66328 6.70352 6.05908 3.66162 1.7515 1.34537 0.954314 0.834716 0.13223 0.0409639 0.0290822 0.00980757 0.00846975 0.00536717 0.00269077 0.00236299 0.00121271 0.000637682 0.000617584 0.000518613 0.000957602 0.00094395 0.00044486 0.000261142 0.000216366
